svm_type c_svc
kernel_type rbf
gamma 0.0208333
nr_class 3
total_sv 3045
rho 0.501117 -0.766104 -0.854964
label 1 0 2
nr_sv 928 1761 356
SV
1 0.2338742219446974 1:601 2:1 3:320 4:0 5:10 6:0 7:0 8:0 9:0 10:0 11:0 12:0 13:0 14:0 15:0 16:256 17:0 18:0 19:0 20:0 21:0 22:0 23:0 24:0 25:0 26:0 27:512 28:0 29:0 30:0 31:0 32:0 33:0 34:0 35:0 36:0 37:0 38:0 39:0 40:0 41:0 42:0 43:0 44:32 45:0 46:0 47:0 48:0 
1 0.2342867174464339 1:332 2:2 3:4 4:0 5:0 6:0 7:16 8:0 9:0 10:0 11:0 12:0 13:0 14:0 15:0 16:0 17:0 18:0 19:0 20:0 21:0 22:0 23:0 24:0 25:0 26:0 27:0 28:0 29:0 30:0 31:0 32:128 33:4 34:0 35:0 36:0 37:0 38:0 39:0 40:0 41:0 42:0 43:0 44:0 45:0 46:0 47:0 48:0 
0.4933495485019133 0.1008321531822152 1:644 2:1 3:4 4:0 5:0 6:0 7:0 8:20 9:0 10:0 11:0 12:0 13:0 14:0 15:0 16:0 17:0 18:0 19:0 20:0 21:0 22:0 23:0 24:0 25:0 26:0 27:0 28:0 29:0 30:0 31:0 32:0 33:0 34:0 35:0 36:0 37:0 38:8 39:2 40:0 41:0 42:0 43:0 44:0 45:0 46:256 47:64 48:0 
1 0.3861037124693948 1:1075 2:1 3:256 4:0 5:34 6:0 7:0 8:0 9:0 10:0 11:0 12:0 13:0 14:0 15:0 16:0 17:0 18:1 19:0 20:0 21:0 22:0 23:0 24:0 25:0 26:0 27:0 28:0 29:0 30:2 31:0 32:0 33:0 34:0 35:0 36:0 37:0 38:0 39:0 40:0 41:0 42:0 43:0 44:0 45:0 46:0 47:0 48:0 
1 0.1850088563555265 1:284 2:2 3:4 4:0 5:0 6:0 7:16 8:0 9:0 10:0 11:0 12:0 13:0 14:0 15:0 16:0 17:0 18:0 19:0 20:0 21:0 22:0 23:0 24:0 25:0 26:0 27:0 28:0 29:0 30:0 31:0 32:128 33:4 34:0 35:0 36:0 37:0 38:0 39:0 40:0 41:0 42:0 43:0 44:0 45:0 46:0 47:0 48:0 
1 0.3144039750852173 1:875 2:1 3:256 4:0 5:2 6:0 7:0 8:0 9:0 10:0 11:0 12:0 13:0 14:0 15:0 16:0 17:0 18:4 19:0 20:0 21:0 22:0 23:0 24:0 25:0 26:0 27:0 28:0 29:0 30:8 31:0 32:0 33:0 34:0 35:0 36:0 37:0 38:0 39:0 40:0 41:0 42:0 43:0 44:0 45:0 46:0 47:0 48:0 
1 0.2336067108914661 1:745 2:1 3:320 4:0 5:10 6:0 7:0 8:0 9:0 10:0 11:0 12:0 13:0 14:0 15:0 16:256 17:0 18:0 19:0 20:0 21:0 22:0 23:0 24:0 25:0 26:0 27:0 28:0 29:0 30:0 31:0 32:0 33:0 34:0 35:0 36:0 37:8 38:0 39:0 40:0 41:0 42:0 43:0 44:0 45:0 46:0 47:0 48:0 
1 0.2304563687654931 1:1111 2:1 3:256 4:0 5:2 6:0 7:0 8:0 9:0 10:0 11:0 12:0 13:0 14:0 15:0 16:256 17:0 18:0 19:0 20:0 21:0 22:0 23:0 24:0 25:0 26:0 27:0 28:0 29:0 30:0 31:0 32:0 33:0 34:0 35:0 36:0 37:0 38:0 39:0 40:0 41:0 42:0 43:0 44:0 45:0 46:0 47:0 48:0 
1 0.2338755650986257 1:984 2:1 3:320 4:0 5:10 6:0 7:0 8:0 9:0 10:0 11:0 12:0 13:0 14:0 15:0 16:256 17:0 18:0 19:0 20:0 21:0 22:0 23:0 24:0 25:0 26:0 27:512 28:0 29:0 30:0 31:0 32:0 33:0 34:0 35:0 36:0 37:8 38:0 39:0 40:0 41:0 42:0 43:0 44:32 45:0 46:0 47:0 48:0 
1 0.233817773789021 1:376 2:2 3:4 4:0 5:0 6:0 7:48 8:0 9:0 10:0 11:0 12:0 13:0 14:0 15:0 16:0 17:0 18:0 19:32 20:0 21:0 22:0 23:0 24:0 25:0 26:0 27:0 28:0 29:0 30:0 31:0 32:128 33:4 34:0 35:0 36:0 37:0 38:0 39:0 40:128 41:4 42:0 43:0 44:0 45:384 46:0 47:0 48:0 
1 0 1:118 2:2 3:4 4:0 5:0 6:0 7:48 8:0 9:0 10:0 11:0 12:0 13:0 14:0 15:0 16:0 17:0 18:0 19:0 20:0 21:0 22:0 23:0 24:0 25:0 26:0 27:0 28:0 29:0 30:0 31:0 32:0 33:4 34:0 35:0 36:0 37:0 38:0 39:0 40:0 41:4 42:0 43:0 44:0 45:0 46:0 47:0 48:0 
1 0.2026529087136414 1:264 2:2 3:4 4:0 5:0 6:0 7:48 8:0 9:0 10:0 11:0 12:0 13:0 14:0 15:0 16:0 17:0 18:0 19:0 20:0 21:0 22:0 23:0 24:0 25:0 26:0 27:0 28:0 29:0 30:0 31:0 32:128 33:4 34:0 35:0 36:0 37:0 38:0 39:0 40:128 41:4 42:0 43:0 44:0 45:0 46:0 47:0 48:0 
1 0.2335206103222622 1:621 2:1 3:4 4:0 5:0 6:1 7:0 8:0 9:0 10:0 11:0 12:0 13:0 14:0 15:0 16:0 17:0 18:0 19:0 20:0 21:0 22:0 23:16 24:0 25:0 26:0 27:0 28:0 29:0 30:0 31:512 32:0 33:0 34:0 35:0 36:0 37:0 38:0 39:0 40:0 41:0 42:0 43:0 44:0 45:0 46:0 47:0 48:0 
1 0.1138390478921255 1:257 2:2 3:4 4:0 5:0 6:0 7:48 8:0 9:0 10:0 11:0 12:0 13:0 14:0 15:0 16:0 17:0 18:0 19:0 20:0 21:0 22:0 23:0 24:0 25:0 26:0 27:0 28:0 29:0 30:0 31:0 32:0 33:4 34:0 35:0 36:0 37:0 38:0 39:0 40:0 41:4 42:0 43:0 44:0 45:0 46:0 47:0 48:0 
1 0.2331465421372184 1:1026 2:1 3:320 4:0 5:10 6:0 7:0 8:0 9:0 10:0 11:0 12:0 13:0 14:0 15:0 16:256 17:0 18:0 19:0 20:0 21:0 22:0 23:0 24:0 25:0 26:0 27:0 28:0 29:0 30:0 31:0 32:0 33:0 34:0 35:0 36:0 37:8 38:0 39:0 40:0 41:0 42:0 43:0 44:0 45:0 46:0 47:0 48:0 
1 0.3124277401210025 1:995 2:1 3:256 4:0 5:34 6:0 7:0 8:0 9:0 10:0 11:0 12:0 13:0 14:0 15:64 16:0 17:2 18:4 19:0 20:32 21:0 22:0 23:0 24:0 25:0 26:0 27:4 28:0 29:8 30:0 31:0 32:0 33:0 34:0 35:0 36:0 37:0 38:0 39:0 40:0 41:0 42:0 43:0 44:0 45:0 46:0 47:0 48:0 
1 0.1347538137423917 1:95 2:2 3:4 4:0 5:0 6:0 7:48 8:0 9:0 10:0 11:0 12:0 13:0 14:0 15:0 16:0 17:0 18:0 19:0 20:0 21:0 22:0 23:0 24:0 25:0 26:0 27:0 28:0 29:0 30:0 31:0 32:128 33:4 34:0 35:0 36:0 37:0 38:0 39:0 40:128 41:4 42:0 43:0 44:0 45:0 46:0 47:0 48:0 
1 0.2352240317560766 1:13 2:1 3:320 4:0 5:10 6:0 7:0 8:0 9:0 10:0 11:0 12:0 13:0 14:0 15:0 16:256 17:0 18:0 19:0 20:0 21:0 22:0 23:0 24:0 25:0 26:0 27:512 28:0 29:0 30:0 31:0 32:0 33:0 34:0 35:0 36:0 37:8 38:0 39:0 40:0 41:0 42:0 43:0 44:32 45:0 46:0 47:0 48:0 
1 0.2338210705533735 1:714 2:1 3:64 4:0 5:8 6:0 7:0 8:0 9:0 10:0 11:0 12:0 13:0 14:0 15:0 16:0 17:0 18:0 19:0 20:0 21:0 22:0 23:0 24:0 25:0 26:0 27:0 28:0 29:0 30:0 31:0 32:0 33:0 34:0 35:0 36:0 37:0 38:0 39:0 40:0 41:0 42:0 43:0 44:32 45:0 46:0 47:0 48:0 
1 0.1846133610435614 1:881 2:1 3:64 4:0 5:8 6:0 7:0 8:0 9:0 10:0 11:0 12:0 13:0 14:0 15:0 16:0 17:0 18:0 19:0 20:0 21:0 22:0 23:0 24:0 25:0 26:0 27:0 28:0 29:0 30:0 31:0 32:0 33:0 34:0 35:0 36:0 37:8 38:0 39:0 40:0 41:0 42:0 43:0 44:32 45:0 46:0 47:0 48:0 
1 1 1:892 2:2 3:4 4:0 5:0 6:0 7:0 8:28 9:0 10:0 11:0 12:0 13:0 14:0 15:0 16:0 17:0 18:0 19:0 20:0 21:0 22:0 23:0 24:0 25:0 26:0 27:0 28:0 29:0 30:0 31:0 32:0 33:0 34:0 35:0 36:0 37:0 38:8 39:1 40:0 41:0 42:0 43:0 44:0 45:0 46:256 47:96 48:0 
1 0 1:133 2:2 3:4 4:0 5:0 6:0 7:48 8:0 9:0 10:0 11:0 12:0 13:0 14:0 15:0 16:0 17:0 18:0 19:0 20:0 21:0 22:0 23:0 24:0 25:0 26:0 27:0 28:0 29:0 30:0 31:0 32:0 33:4 34:0 35:0 36:0 37:0 38:0 39:0 40:0 41:4 42:0 43:0 44:0 45:0 46:0 47:0 48:0 
1 0.2340439606240922 1:1050 2:1 3:64 4:0 5:8 6:0 7:0 8:0 9:0 10:0 11:0 12:0 13:1 14:0 15:0 16:0 17:0 18:0 19:0 20:0 21:256 22:0 23:0 24:0 25:0 26:0 27:0 28:0 29:0 30:0 31:0 32:0 33:0 34:0 35:0 36:0 37:8 38:0 39:0 40:0 41:0 42:0 43:0 44:0 45:0 46:0 47:0 48:0 
1 0 1:691 2:2 3:384 4:0 5:2 6:12 7:0 8:0 9:0 10:0 11:0 12:0 13:0 14:0 15:0 16:0 17:32 18:0 19:0 20:0 21:0 22:0 23:0 24:0 25:0 26:0 27:0 28:0 29:0 30:0 31:0 32:4 33:0 34:0 35:0 36:0 37:0 38:0 39:0 40:64 41:0 42:0 43:0 44:0 45:0 46:0 47:0 48:0 
1 0.1580122447787607 1:91 2:2 3:4 4:0 5:0 6:0 7:48 8:0 9:0 10:0 11:0 12:0 13:0 14:0 15:0 16:0 17:0 18:0 19:0 20:0 21:0 22:0 23:0 24:0 25:0 26:0 27:0 28:0 29:0 30:0 31:0 32:0 33:4 34:0 35:0 36:0 37:0 38:0 39:0 40:0 41:4 42:0 43:0 44:0 45:0 46:0 47:0 48:0 
1 1 1:895 2:1 3:4 4:0 5:0 6:0 7:0 8:28 9:0 10:0 11:0 12:0 13:0 14:0 15:0 16:0 17:0 18:0 19:0 20:0 21:0 22:0 23:0 24:0 25:0 26:0 27:0 28:0 29:0 30:0 31:0 32:0 33:0 34:0 35:0 36:0 37:0 38:8 39:3 40:0 41:0 42:0 43:0 44:0 45:0 46:256 47:96 48:0 
1 0.2338177635099516 1:909 2:2 3:272 4:0 5:18 6:0 7:0 8:0 9:0 10:0 11:0 12:0 13:0 14:1 15:16 16:0 17:0 18:0 19:0 20:0 21:0 22:0 23:0 24:0 25:32 26:0 27:1 28:0 29:0 30:0 31:0 32:0 33:0 34:0 35:0 36:0 37:0 38:0 39:0 40:0 41:0 42:0 43:0 44:0 45:0 46:0 47:0 48:0 
1 0.2339641435298825 1:847 2:4 3:4 4:0 5:0 6:0 7:0 8:0 9:16 10:0 11:0 12:0 13:0 14:0 15:0 16:0 17:0 18:0 19:0 20:0 21:0 22:0 23:0 24:0 25:0 26:0 27:0 28:0 29:0 30:0 31:0 32:0 33:0 34:0 35:0 36:0 37:0 38:0 39:0 40:0 41:0 42:0 43:0 44:0 45:0 46:5 47:0 48:0 
1 1 1:895 2:1 3:4 4:0 5:0 6:0 7:0 8:28 9:0 10:0 11:0 12:0 13:0 14:0 15:0 16:0 17:0 18:0 19:0 20:0 21:0 22:0 23:0 24:0 25:0 26:0 27:0 28:0 29:0 30:0 31:0 32:0 33:0 34:0 35:0 36:0 37:0 38:8 39:3 40:0 41:0 42:0 43:0 44:0 45:0 46:256 47:96 48:0 
1 1 1:962 2:1 3:256 4:0 5:34 6:0 7:0 8:0 9:0 10:0 11:0 12:0 13:0 14:0 15:0 16:0 17:0 18:4 19:0 20:0 21:0 22:0 23:0 24:0 25:0 26:0 27:0 28:0 29:0 30:8 31:0 32:0 33:0 34:0 35:0 36:0 37:0 38:0 39:0 40:0 41:0 42:0 43:0 44:0 45:0 46:0 47:0 48:0 
1 0.2806278723579715 1:1104 2:1 3:256 4:0 5:2 6:0 7:0 8:0 9:0 10:0 11:0 12:0 13:0 14:0 15:0 16:0 17:0 18:1 19:0 20:0 21:0 22:0 23:0 24:0 25:0 26:0 27:0 28:0 29:0 30:2 31:0 32:0 33:0 34:0 35:0 36:0 37:0 38:0 39:0 40:0 41:0 42:0 43:0 44:0 45:0 46:0 47:0 48:0 
1 0.2278393979521516 1:617 2:1 3:256 4:0 5:2 6:0 7:0 8:0 9:0 10:0 11:0 12:0 13:0 14:0 15:0 16:0 17:0 18:0 19:0 20:0 21:0 22:0 23:0 24:0 25:0 26:0 27:4 28:0 29:0 30:0 31:0 32:0 33:0 34:0 35:0 36:0 37:0 38:0 39:0 40:0 41:0 42:0 43:0 44:0 45:0 46:0 47:0 48:0 
0 1 1:1107 2:1 3:256 4:0 5:34 6:0 7:0 8:0 9:0 10:0 11:0 12:0 13:0 14:0 15:0 16:0 17:2 18:4 19:0 20:0 21:0 22:0 23:0 24:0 25:0 26:0 27:0 28:0 29:8 30:8 31:0 32:0 33:0 34:0 35:0 36:0 37:0 38:0 39:0 40:0 41:0 42:0 43:0 44:0 45:0 46:0 47:0 48:0 
0.7551544606685638 0 1:737 2:1 3:256 4:0 5:2 6:0 7:0 8:0 9:0 10:0 11:0 12:0 13:0 14:4 15:0 16:0 17:0 18:0 19:0 20:0 21:0 22:0 23:0 24:0 25:128 26:0 27:0 28:0 29:0 30:0 31:0 32:0 33:0 34:0 35:0 36:0 37:0 38:0 39:0 40:0 41:0 42:0 43:0 44:0 45:0 46:0 47:0 48:0 
1 1 1:734 2:1 3:256 4:0 5:34 6:0 7:0 8:0 9:0 10:0 11:0 12:0 13:0 14:0 15:0 16:0 17:2 18:5 19:0 20:0 21:0 22:0 23:0 24:0 25:0 26:0 27:0 28:0 29:8 30:10 31:0 32:0 33:0 34:0 35:0 36:0 37:0 38:0 39:0 40:0 41:0 42:0 43:0 44:0 45:0 46:0 47:0 48:0 
1 0.180268657968884 1:1080 2:1 3:320 4:0 5:10 6:0 7:0 8:0 9:0 10:0 11:0 12:0 13:0 14:0 15:0 16:256 17:0 18:0 19:0 20:0 21:0 22:0 23:0 24:0 25:0 26:0 27:0 28:0 29:0 30:0 31:0 32:0 33:0 34:0 35:0 36:0 37:8 38:0 39:0 40:0 41:0 42:0 43:0 44:0 45:0 46:0 47:0 48:0 
1 0.2341068068828653 1:944 2:1 3:256 4:0 5:2 6:0 7:4 8:0 9:0 10:0 11:0 12:0 13:0 14:0 15:16 16:4 17:0 18:64 19:0 20:0 21:0 22:0 23:0 24:0 25:0 26:0 27:1 28:4 29:0 30:128 31:0 32:0 33:0 34:0 35:0 36:0 37:0 38:1 39:0 40:0 41:0 42:0 43:0 44:0 45:0 46:0 47:0 48:0 
1 0.2336099086286879 1:903 2:1 3:256 4:0 5:2 6:0 7:0 8:0 9:0 10:0 11:0 12:0 13:0 14:0 15:16 16:0 17:0 18:8 19:0 20:0 21:0 22:0 23:0 24:0 25:0 26:0 27:1 28:0 29:0 30:16 31:0 32:0 33:0 34:0 35:0 36:0 37:0 38:0 39:0 40:0 41:0 42:0 43:0 44:0 45:0 46:0 47:0 48:0 
1 0.2338067743071299 1:856 2:2 3:384 4:0 5:2 6:12 7:0 8:0 9:0 10:0 11:0 12:0 13:0 14:0 15:0 16:0 17:32 18:0 19:0 20:0 21:0 22:0 23:0 24:0 25:0 26:0 27:0 28:0 29:0 30:0 31:0 32:4 33:0 34:0 35:0 36:0 37:0 38:0 39:0 40:64 41:0 42:0 43:0 44:0 45:0 46:0 47:0 48:0 
1 1 1:1100 2:1 3:256 4:0 5:34 6:0 7:0 8:0 9:0 10:0 11:0 12:0 13:0 14:0 15:0 16:0 17:2 18:4 19:0 20:0 21:0 22:0 23:0 24:0 25:0 26:0 27:0 28:0 29:0 30:8 31:0 32:0 33:0 34:0 35:0 36:0 37:0 38:0 39:0 40:0 41:0 42:0 43:0 44:0 45:0 46:0 47:0 48:0 
0 0.00248462614923306 1:326 2:2 3:4 4:0 5:0 6:0 7:48 8:0 9:0 10:0 11:0 12:0 13:0 14:0 15:0 16:0 17:0 18:0 19:0 20:0 21:0 22:0 23:0 24:0 25:0 26:0 27:0 28:0 29:0 30:0 31:0 32:256 33:1 34:0 35:0 36:0 37:0 38:0 39:0 40:256 41:1 42:0 43:0 44:0 45:0 46:0 47:0 48:0 
1 0.2338091614714261 1:1056 2:1 3:320 4:0 5:10 6:0 7:0 8:0 9:0 10:0 11:0 12:0 13:0 14:0 15:16 16:0 17:0 18:0 19:0 20:0 21:0 22:0 23:0 24:0 25:0 26:0 27:1 28:0 29:0 30:0 31:0 32:0 33:0 34:0 35:0 36:0 37:8 38:0 39:0 40:0 41:0 42:0 43:0 44:0 45:0 46:0 47:0 48:0 
0 0.386343510702459 1:821 2:2 3:256 4:0 5:32 6:0 7:0 8:0 9:0 10:0 11:0 12:0 13:0 14:0 15:0 16:0 17:0 18:4 19:0 20:0 21:0 22:0 23:0 24:0 25:0 26:0 27:0 28:0 29:0 30:8 31:0 32:0 33:0 34:0 35:0 36:0 37:0 38:0 39:0 40:0 41:0 42:0 43:0 44:0 45:0 46:0 47:0 48:0 
1 0.3116183964605468 1:1008 2:1 3:256 4:0 5:34 6:0 7:0 8:0 9:0 10:0 11:0 12:0 13:0 14:0 15:0 16:0 17:2 18:5 19:0 20:0 21:0 22:0 23:0 24:0 25:0 26:0 27:0 28:0 29:8 30:10 31:0 32:0 33:0 34:0 35:0 36:0 37:0 38:0 39:0 40:0 41:0 42:0 43:0 44:0 45:0 46:0 47:0 48:0 
1 0.2021713256110226 1:937 2:1 3:256 4:0 5:2 6:0 7:0 8:0 9:0 10:0 11:0 12:0 13:0 14:0 15:16 16:0 17:0 18:0 19:0 20:0 21:0 22:0 23:0 24:0 25:0 26:0 27:1 28:0 29:0 30:0 31:0 32:0 33:0 34:0 35:0 36:0 37:0 38:0 39:0 40:0 41:0 42:0 43:0 44:0 45:0 46:0 47:0 48:0 
1 1 1:1042 2:2 3:256 4:0 5:32 6:0 7:0 8:0 9:0 10:0 11:0 12:0 13:0 14:0 15:0 16:0 17:0 18:4 19:0 20:0 21:0 22:0 23:0 24:0 25:0 26:0 27:0 28:0 29:0 30:8 31:0 32:0 33:0 34:0 35:0 36:0 37:0 38:0 39:0 40:0 41:0 42:0 43:0 44:0 45:0 46:0 47:0 48:0 
0.5014368991738923 0.03089690744314828 1:72 2:2 3:256 4:0 5:2 6:0 7:0 8:0 9:0 10:0 11:0 12:0 13:0 14:0 15:32 16:0 17:0 18:0 19:0 20:0 21:0 22:0 23:0 24:0 25:0 26:0 27:2 28:0 29:0 30:0 31:0 32:0 33:0 34:0 35:0 36:0 37:0 38:0 39:0 40:0 41:0 42:0 43:0 44:0 45:0 46:0 47:0 48:0 
1 1 1:704 2:2 3:256 4:0 5:32 6:0 7:0 8:0 9:0 10:0 11:0 12:0 13:0 14:0 15:0 16:0 17:0 18:4 19:0 20:0 21:0 22:0 23:0 24:0 25:0 26:0 27:0 28:0 29:0 30:8 31:0 32:0 33:0 34:0 35:0 36:0 37:0 38:0 39:0 40:0 41:0 42:0 43:0 44:0 45:0 46:0 47:0 48:0 
0.9646480516997409 1 1:962 2:2 3:256 4:0 5:32 6:0 7:0 8:0 9:0 10:0 11:0 12:0 13:0 14:0 15:0 16:0 17:0 18:4 19:0 20:0 21:0 22:0 23:0 24:0 25:0 26:0 27:0 28:0 29:0 30:8 31:0 32:0 33:0 34:0 35:0 36:0 37:0 38:0 39:0 40:0 41:0 42:0 43:0 44:0 45:0 46:0 47:0 48:0 
1 0.2318866008520027 1:974 2:1 3:256 4:0 5:2 6:0 7:0 8:0 9:0 10:0 11:0 12:0 13:0 14:0 15:16 16:0 17:0 18:0 19:0 20:0 21:0 22:0 23:0 24:0 25:0 26:0 27:1 28:0 29:0 30:0 31:0 32:0 33:0 34:0 35:0 36:0 37:0 38:0 39:0 40:0 41:0 42:0 43:0 44:0 45:0 46:0 47:0 48:0 
1 0.1209721506814574 1:745 2:1 3:256 4:0 5:2 6:0 7:0 8:0 9:0 10:0 11:0 12:0 13:0 14:0 15:0 16:0 17:0 18:0 19:0 20:0 21:0 22:0 23:0 24:0 25:0 26:0 27:1 28:0 29:0 30:0 31:0 32:0 33:0 34:0 35:0 36:0 37:0 38:0 39:0 40:0 41:0 42:0 43:0 44:0 45:0 46:0 47:0 48:0 
1 0.3045613580070519 1:1092 2:1 3:256 4:0 5:2 6:0 7:0 8:0 9:0 10:0 11:0 12:0 13:0 14:0 15:0 16:0 17:0 18:0 19:0 20:0 21:0 22:0 23:0 24:0 25:0 26:0 27:1 28:0 29:0 30:0 31:0 32:0 33:0 34:0 35:0 36:0 37:0 38:0 39:0 40:0 41:0 42:0 43:0 44:0 45:0 46:0 47:0 48:0 
1 0 1:756 2:1 3:256 4:0 5:2 6:0 7:0 8:0 9:0 10:0 11:0 12:0 13:0 14:0 15:16 16:0 17:0 18:0 19:0 20:0 21:0 22:0 23:0 24:0 25:0 26:0 27:1 28:0 29:0 30:0 31:0 32:0 33:0 34:0 35:0 36:0 37:0 38:0 39:0 40:0 41:0 42:0 43:0 44:0 45:0 46:0 47:0 48:0 
1 0.1851847594514922 1:89 2:2 3:4 4:0 5:0 6:0 7:48 8:0 9:0 10:0 11:0 12:0 13:0 14:0 15:0 16:0 17:0 18:0 19:0 20:0 21:0 22:0 23:0 24:0 25:0 26:0 27:0 28:0 29:0 30:0 31:0 32:0 33:12 34:0 35:0 36:0 37:0 38:0 39:0 40:0 41:12 42:0 43:0 44:0 45:0 46:0 47:0 48:0 
0.994551776054077 0.1138161407641254 1:639 2:1 3:4 4:0 5:0 6:0 7:0 8:0 9:1 10:0 11:0 12:0 13:0 14:0 15:0 16:0 17:0 18:0 19:0 20:0 21:0 22:0 23:0 24:0 25:0 26:0 27:0 28:0 29:0 30:0 31:0 32:0 33:0 34:0 35:0 36:0 37:0 38:512 39:0 40:0 41:0 42:0 43:0 44:0 45:0 46:0 47:0 48:0 
1 1 1:734 2:2 3:256 4:0 5:32 6:0 7:0 8:0 9:0 10:0 11:0 12:0 13:0 14:0 15:0 16:0 17:2 18:4 19:0 20:0 21:0 22:0 23:0 24:0 25:0 26:0 27:0 28:0 29:8 30:8 31:0 32:0 33:0 34:0 35:0 36:0 37:0 38:0 39:0 40:0 41:0 42:0 43:0 44:0 45:0 46:0 47:0 48:0 
1 0.2338185868784157 1:141 2:2 3:4 4:0 5:0 6:0 7:48 8:0 9:0 10:0 11:0 12:0 13:0 14:0 15:0 16:0 17:0 18:0 19:0 20:0 21:0 22:0 23:0 24:0 25:0 26:0 27:0 28:0 29:0 30:0 31:0 32:384 33:4 34:0 35:0 36:0 37:0 38:0 39:0 40:896 41:4 42:0 43:0 44:0 45:0 46:0 47:0 48:0 
1 0 1:1008 2:2 3:256 4:0 5:32 6:0 7:0 8:0 9:0 10:0 11:0 12:0 13:0 14:0 15:0 16:0 17:0 18:5 19:0 20:0 21:0 22:0 23:0 24:0 25:0 26:0 27:0 28:0 29:0 30:8 31:0 32:0 33:0 34:0 35:0 36:0 37:0 38:0 39:0 40:0 41:0 42:0 43:0 44:0 45:0 46:0 47:0 48:0 
1 0 1:445 2:2 3:4 4:0 5:0 6:0 7:48 8:0 9:0 10:0 11:0 12:0 13:0 14:0 15:0 16:0 17:0 18:0 19:0 20:0 21:0 22:0 23:0 24:0 25:0 26:0 27:0 28:0 29:0 30:0 31:0 32:0 33:4 34:0 35:0 36:0 37:0 38:0 39:0 40:0 41:4 42:0 43:0 44:0 45:0 46:0 47:0 48:0 
1 0.2333176649756265 1:885 2:1 3:256 4:0 5:2 6:0 7:0 8:0 9:0 10:0 11:0 12:0 13:0 14:0 15:128 16:0 17:1 18:2 19:0 20:0 21:0 22:0 23:0 24:0 25:0 26:0 27:8 28:0 29:0 30:0 31:0 32:0 33:0 34:0 35:0 36:0 37:0 38:0 39:0 40:0 41:0 42:0 43:0 44:0 45:0 46:0 47:0 48:0 
1 0.2333100323002703 1:856 2:2 3:384 4:0 5:2 6:12 7:0 8:0 9:0 10:0 11:0 12:0 13:0 14:0 15:0 16:0 17:32 18:0 19:0 20:0 21:0 22:0 23:0 24:0 25:0 26:0 27:0 28:0 29:128 30:0 31:0 32:4 33:0 34:0 35:0 36:0 37:0 38:0 39:0 40:64 41:0 42:0 43:0 44:0 45:0 46:0 47:0 48:0 
1 0.2155800232212448 1:165 2:2 3:4 4:0 5:0 6:0 7:16 8:0 9:0 10:0 11:0 12:0 13:0 14:0 15:0 16:0 17:0 18:0 19:0 20:0 21:0 22:0 23:0 24:0 25:0 26:0 27:0 28:0 29:0 30:0 31:0 32:128 33:4 34:0 35:0 36:0 37:0 38:0 39:0 40:0 41:0 42:0 43:0 44:0 45:0 46:0 47:0 48:0 
1 0 1:102 2:2 3:4 4:0 5:0 6:0 7:48 8:0 9:0 10:0 11:0 12:0 13:0 14:0 15:0 16:0 17:0 18:0 19:0 20:0 21:0 22:0 23:0 24:0 25:0 26:0 27:0 28:0 29:0 30:0 31:0 32:0 33:4 34:0 35:0 36:0 37:0 38:0 39:0 40:0 41:4 42:0 43:0 44:0 45:0 46:0 47:0 48:0 
1 0.2333985030944204 1:371 2:2 3:4 4:0 5:0 6:0 7:48 8:0 9:0 10:0 11:0 12:0 13:0 14:0 15:0 16:0 17:0 18:0 19:0 20:0 21:0 22:0 23:0 24:0 25:0 26:0 27:0 28:0 29:0 30:0 31:0 32:256 33:41 34:0 35:0 36:0 37:0 38:0 39:0 40:256 41:41 42:0 43:0 44:0 45:0 46:0 47:0 48:0 
1 1 1:895 2:1 3:4 4:0 5:0 6:0 7:0 8:28 9:0 10:0 11:0 12:0 13:0 14:0 15:0 16:0 17:0 18:0 19:0 20:0 21:0 22:0 23:0 24:0 25:0 26:0 27:0 28:0 29:0 30:0 31:0 32:0 33:0 34:0 35:0 36:0 37:0 38:8 39:3 40:0 41:0 42:0 43:0 44:0 45:0 46:256 47:96 48:0 
0 1 1:1008 2:2 3:256 4:0 5:32 6:0 7:0 8:0 9:0 10:0 11:0 12:0 13:0 14:0 15:0 16:0 17:0 18:5 19:0 20:0 21:0 22:0 23:0 24:0 25:0 26:0 27:0 28:0 29:0 30:10 31:0 32:0 33:0 34:0 35:0 36:0 37:0 38:0 39:0 40:0 41:0 42:0 43:0 44:0 45:0 46:0 47:0 48:0 
0.7746544669771152 0 1:734 2:1 3:256 4:0 5:34 6:0 7:0 8:0 9:0 10:0 11:0 12:0 13:0 14:0 15:0 16:0 17:2 18:4 19:0 20:0 21:0 22:0 23:0 24:0 25:0 26:0 27:0 28:0 29:0 30:8 31:0 32:0 33:0 34:0 35:0 36:0 37:0 38:0 39:0 40:0 41:0 42:0 43:0 44:0 45:0 46:0 47:0 48:0 
0.1101255099053053 1 1:1052 2:1 3:260 4:0 5:32 6:0 7:0 8:0 9:16 10:0 11:0 12:0 13:0 14:0 15:0 16:0 17:0 18:5 19:0 20:0 21:0 22:0 23:0 24:0 25:0 26:0 27:0 28:0 29:0 30:10 31:0 32:0 33:0 34:0 35:0 36:0 37:0 38:0 39:0 40:0 41:0 42:0 43:0 44:0 45:0 46:0 47:0 48:0 
1 0.01547259969285066 1:154 2:2 3:4 4:0 5:0 6:0 7:48 8:0 9:0 10:0 11:0 12:0 13:0 14:0 15:0 16:0 17:0 18:0 19:0 20:0 21:0 22:0 23:0 24:0 25:0 26:0 27:0 28:0 29:0 30:0 31:0 32:0 33:4 34:0 35:0 36:0 37:0 38:0 39:0 40:0 41:4 42:0 43:0 44:0 45:0 46:0 47:0 48:0 
1 0.2199586521677968 1:91 2:2 3:4 4:0 5:0 6:0 7:48 8:0 9:0 10:0 11:0 12:0 13:0 14:0 15:0 16:0 17:0 18:0 19:0 20:0 21:0 22:0 23:0 24:0 25:0 26:0 27:0 28:0 29:0 30:0 31:0 32:128 33:36 34:0 35:0 36:0 37:0 38:0 39:0 40:128 41:36 42:0 43:0 44:0 45:0 46:0 47:0 48:0 
0.4416041571719584 0.01508332282233405 1:272 2:2 3:4 4:0 5:0 6:0 7:48 8:0 9:0 10:0 11:0 12:0 13:0 14:0 15:0 16:0 17:0 18:0 19:0 20:0 21:0 22:0 23:0 24:0 25:0 26:0 27:0 28:0 29:0 30:0 31:0 32:128 33:4 34:0 35:0 36:0 37:0 38:0 39:0 40:128 41:4 42:0 43:0 44:0 45:0 46:0 47:0 48:0 
1 1 1:821 2:1 3:260 4:0 5:34 6:0 7:0 8:0 9:16 10:0 11:0 12:0 13:0 14:0 15:0 16:0 17:2 18:4 19:0 20:0 21:0 22:0 23:0 24:0 25:0 26:0 27:0 28:0 29:8 30:8 31:0 32:0 33:0 34:0 35:0 36:0 37:0 38:0 39:0 40:0 41:0 42:0 43:0 44:0 45:0 46:0 47:0 48:0 
1 0.2333959856917541 1:1023 2:1 3:768 4:0 5:2 6:0 7:1 8:0 9:0 10:0 11:0 12:0 13:0 14:0 15:0 16:0 17:0 18:0 19:0 20:0 21:0 22:0 23:8 24:0 25:0 26:0 27:0 28:0 29:32 30:0 31:256 32:0 33:0 34:0 35:0 36:0 37:0 38:0 39:0 40:0 41:0 42:0 43:0 44:0 45:0 46:0 47:0 48:0 
1 0.2339389615701805 1:228 2:2 3:4 4:0 5:0 6:0 7:48 8:0 9:0 10:0 11:0 12:0 13:0 14:0 15:0 16:0 17:0 18:0 19:0 20:0 21:0 22:0 23:0 24:0 25:0 26:0 27:0 28:0 29:0 30:0 31:0 32:128 33:4 34:0 35:0 36:0 37:0 38:0 39:0 40:128 41:28 42:0 43:0 44:0 45:0 46:0 47:0 48:0 
1 0.2334104528507368 1:481 2:1 3:4 4:0 5:0 6:2 7:32 8:0 9:0 10:0 11:0 12:0 13:0 14:0 15:0 16:0 17:0 18:0 19:0 20:0 21:0 22:0 23:32 24:0 25:0 26:0 27:0 28:0 29:0 30:0 31:0 32:1 33:0 34:0 35:0 36:0 37:0 38:0 39:0 40:2 41:0 42:0 43:0 44:0 45:0 46:0 47:0 48:0 
1 0.2334104366134134 1:723 2:1 3:260 4:0 5:2 6:1 7:0 8:0 9:0 10:0 11:0 12:0 13:0 14:0 15:0 16:0 17:0 18:128 19:0 20:0 21:0 22:0 23:16 24:0 25:0 26:0 27:0 28:0 29:0 30:512 31:512 32:0 33:0 34:0 35:0 36:0 37:0 38:0 39:0 40:0 41:0 42:0 43:0 44:0 45:0 46:0 47:0 48:0 
1 0.1215468403942631 1:204 2:1 3:4 4:0 5:0 6:1 7:32 8:0 9:0 10:0 11:0 12:0 13:0 14:0 15:0 16:0 17:0 18:0 19:0 20:0 21:0 22:0 23:16 24:0 25:0 26:0 27:0 28:0 29:0 30:0 31:512 32:0 33:0 34:0 35:0 36:0 37:0 38:0 39:0 40:2 41:0 42:0 43:0 44:0 45:0 46:0 47:0 48:0 
1 0.004995122689165426 1:1008 2:2 3:256 4:0 5:32 6:0 7:0 8:0 9:0 10:0 11:0 12:0 13:0 14:0 15:0 16:0 17:0 18:5 19:0 20:0 21:0 22:0 23:0 24:0 25:0 26:0 27:0 28:0 29:0 30:8 31:0 32:0 33:0 34:0 35:0 36:0 37:0 38:0 39:0 40:0 41:0 42:0 43:0 44:0 45:0 46:0 47:0 48:0 
1 0 1:825 2:1 3:256 4:0 5:2 6:0 7:0 8:0 9:0 10:0 11:0 12:0 13:0 14:0 15:0 16:0 17:0 18:1 19:0 20:0 21:0 22:0 23:0 24:0 25:0 26:0 27:0 28:0 29:0 30:2 31:0 32:0 33:0 34:0 35:0 36:0 37:0 38:0 39:0 40:0 41:0 42:0 43:0 44:0 45:0 46:0 47:0 48:0 
1 0.1922688056222072 1:88 2:4 3:8 4:0 5:1 6:0 7:0 8:0 9:0 10:0 11:0 12:0 13:512 14:0 15:0 16:0 17:0 18:0 19:0 20:0 21:0 22:0 23:0 24:0 25:16 26:0 27:0 28:0 29:0 30:0 31:0 32:0 33:0 34:0 35:0 36:0 37:0 38:0 39:0 40:0 41:0 42:0 43:0 44:0 45:0 46:0 47:0 48:0 
1 0.2023090595810692 1:949 2:1 3:256 4:0 5:2 6:0 7:0 8:0 9:0 10:0 11:0 12:0 13:0 14:0 15:16 16:0 17:0 18:0 19:0 20:0 21:0 22:0 23:0 24:0 25:0 26:0 27:1 28:0 29:0 30:0 31:0 32:0 33:0 34:0 35:0 36:0 37:0 38:0 39:0 40:0 41:0 42:0 43:0 44:0 45:0 46:0 47:0 48:0 
1 0.2338074383085254 1:330 2:2 3:4 4:0 5:0 6:0 7:48 8:0 9:0 10:0 11:0 12:0 13:0 14:0 15:0 16:0 17:0 18:0 19:0 20:0 21:0 22:0 23:0 24:0 25:0 26:0 27:0 28:0 29:0 30:0 31:0 32:128 33:4 34:0 35:0 36:0 37:0 38:0 39:0 40:128 41:4 42:0 43:0 44:0 45:0 46:0 47:0 48:0 
1 0.2328015110877656 1:402 2:1 3:4 4:0 5:0 6:1 7:48 8:0 9:0 10:0 11:0 12:0 13:0 14:0 15:0 16:0 17:0 18:0 19:0 20:0 21:0 22:0 23:16 24:0 25:0 26:0 27:0 28:0 29:0 30:0 31:512 32:2 33:0 34:0 35:0 36:0 37:0 38:0 39:0 40:2 41:0 42:0 43:0 44:0 45:0 46:0 47:0 48:0 
1 0.2334664687569085 1:785 2:4 3:256 4:0 5:2 6:0 7:0 8:0 9:0 10:0 11:0 12:0 13:0 14:0 15:2 16:0 17:0 18:0 19:0 20:0 21:0 22:0 23:0 24:0 25:0 26:128 27:0 28:0 29:0 30:0 31:0 32:0 33:0 34:0 35:0 36:0 37:0 38:0 39:0 40:0 41:0 42:0 43:0 44:0 45:0 46:0 47:0 48:0 
1 0.2192685855285141 1:386 2:2 3:4 4:0 5:0 6:0 7:48 8:0 9:0 10:0 11:0 12:0 13:0 14:0 15:0 16:0 17:0 18:0 19:0 20:0 21:0 22:0 23:0 24:0 25:0 26:0 27:0 28:0 29:0 30:0 31:0 32:128 33:4 34:0 35:0 36:0 37:0 38:0 39:0 40:128 41:4 42:0 43:0 44:0 45:0 46:0 47:0 48:0 
1 0.2336698279479026 1:655 2:1 3:256 4:4 5:34 6:0 7:0 8:0 9:0 10:4 11:0 12:0 13:0 14:0 15:0 16:0 17:0 18:1 19:0 20:0 21:0 22:0 23:128 24:0 25:0 26:0 27:0 28:0 29:0 30:2 31:0 32:0 33:0 34:0 35:0 36:0 37:0 38:0 39:0 40:0 41:0 42:0 43:0 44:0 45:0 46:0 47:0 48:0 
1 0.1919775999450683 1:85 2:4 3:8 4:0 5:1 6:0 7:0 8:0 9:0 10:0 11:0 12:0 13:512 14:0 15:0 16:0 17:0 18:0 19:0 20:0 21:0 22:0 23:0 24:0 25:8 26:0 27:0 28:0 29:0 30:0 31:0 32:0 33:0 34:0 35:0 36:0 37:0 38:0 39:0 40:0 41:0 42:0 43:0 44:0 45:0 46:0 47:0 48:0 
1 0.1495244571050774 1:346 2:2 3:4 4:0 5:0 6:0 7:48 8:0 9:0 10:0 11:0 12:0 13:0 14:0 15:0 16:0 17:0 18:0 19:0 20:0 21:0 22:0 23:0 24:0 25:0 26:0 27:0 28:0 29:0 30:0 31:0 32:0 33:4 34:0 35:0 36:0 37:0 38:0 39:0 40:0 41:4 42:0 43:0 44:0 45:0 46:0 47:0 48:0 
1 0.2342806270434604 1:819 2:4 3:256 4:0 5:2 6:0 7:0 8:0 9:0 10:0 11:0 12:0 13:0 14:1 15:0 16:0 17:0 18:0 19:0 20:0 21:0 22:0 23:0 24:0 25:32 26:0 27:0 28:0 29:0 30:0 31:0 32:0 33:0 34:0 35:0 36:0 37:0 38:0 39:0 40:0 41:0 42:0 43:0 44:0 45:0 46:0 47:0 48:0 
0 1 1:846 2:2 3:256 4:0 5:32 6:0 7:0 8:0 9:0 10:0 11:0 12:0 13:0 14:0 15:0 16:0 17:0 18:4 19:0 20:0 21:0 22:0 23:0 24:0 25:0 26:0 27:0 28:0 29:0 30:8 31:0 32:0 33:0 34:0 35:0 36:0 37:0 38:0 39:0 40:0 41:0 42:0 43:0 44:0 45:0 46:0 47:0 48:0 
0.2449582556679723 1 1:1107 2:1 3:256 4:0 5:34 6:0 7:0 8:0 9:0 10:0 11:0 12:0 13:0 14:0 15:0 16:0 17:2 18:5 19:0 20:0 21:2 22:0 23:0 24:0 25:0 26:0 27:0 28:0 29:8 30:10 31:0 32:0 33:0 34:0 35:0 36:0 37:0 38:0 39:0 40:0 41:0 42:0 43:0 44:0 45:0 46:0 47:0 48:0 
1 0.2046276694895182 1:59 2:2 3:256 4:0 5:2 6:0 7:0 8:0 9:0 10:0 11:0 12:0 13:0 14:0 15:32 16:0 17:0 18:0 19:0 20:0 21:0 22:0 23:0 24:0 25:0 26:0 27:2 28:0 29:0 30:0 31:0 32:0 33:0 34:0 35:0 36:0 37:0 38:0 39:0 40:0 41:0 42:0 43:0 44:0 45:0 46:0 47:0 48:0 
0.676232309616877 0 1:1090 2:1 3:256 4:0 5:2 6:0 7:0 8:0 9:0 10:0 11:0 12:0 13:0 14:0 15:0 16:0 17:0 18:2 19:0 20:0 21:0 22:0 23:0 24:0 25:0 26:0 27:0 28:0 29:0 30:4 31:0 32:0 33:0 34:0 35:0 36:0 37:0 38:0 39:0 40:0 41:0 42:0 43:0 44:0 45:0 46:0 47:0 48:0 
1 0.2327403168387389 1:714 2:2 3:272 4:0 5:18 6:0 7:0 8:0 9:0 10:0 11:0 12:0 13:0 14:0 15:0 16:0 17:0 18:0 19:0 20:0 21:0 22:0 23:0 24:0 25:0 26:0 27:1 28:0 29:0 30:0 31:0 32:0 33:0 34:0 35:0 36:0 37:0 38:0 39:0 40:0 41:0 42:0 43:0 44:0 45:0 46:0 47:0 48:0 
1 0 1:448 2:2 3:4 4:0 5:0 6:0 7:48 8:0 9:0 10:0 11:0 12:0 13:0 14:0 15:0 16:0 17:0 18:0 19:0 20:0 21:0 22:0 23:0 24:0 25:0 26:0 27:0 28:0 29:0 30:0 31:0 32:0 33:4 34:0 35:0 36:0 37:0 38:0 39:0 40:0 41:4 42:0 43:0 44:0 45:0 46:0 47:0 48:0 
1 0.2337273112029031 1:790 2:1 3:132 4:0 5:0 6:9 7:0 8:0 9:0 10:0 11:0 12:0 13:0 14:0 15:0 16:0 17:0 18:0 19:0 20:0 21:0 22:0 23:16 24:0 25:0 26:0 27:0 28:0 29:0 30:0 31:512 32:8 33:0 34:0 35:0 36:0 37:0 38:0 39:0 40:64 41:0 42:0 43:0 44:0 45:0 46:0 47:0 48:0 
1 0.1850783413543527 1:1038 2:1 3:256 4:0 5:2 6:0 7:0 8:0 9:0 10:0 11:0 12:0 13:0 14:0 15:16 16:256 17:0 18:0 19:0 20:0 21:0 22:0 23:0 24:0 25:0 26:0 27:1 28:0 29:0 30:0 31:0 32:0 33:0 34:0 35:0 36:0 37:0 38:0 39:0 40:0 41:0 42:0 43:0 44:0 45:0 46:0 47:0 48:0 
0.311577056683497 0.002680488724526586 1:1097 2:1 3:256 4:0 5:2 6:0 7:0 8:0 9:0 10:0 11:0 12:0 13:0 14:0 15:0 16:256 17:0 18:0 19:0 20:0 21:0 22:0 23:0 24:0 25:0 26:0 27:1 28:0 29:0 30:0 31:0 32:0 33:0 34:0 35:0 36:0 37:0 38:0 39:0 40:0 41:0 42:0 43:0 44:0 45:0 46:0 47:0 48:0 
1 0.2317616462411908 1:802 2:2 3:400 4:0 5:18 6:8 7:0 8:0 9:0 10:0 11:0 12:0 13:0 14:0 15:16 16:0 17:0 18:0 19:0 20:0 21:0 22:0 23:0 24:0 25:0 26:0 27:0 28:0 29:0 30:0 31:0 32:8 33:0 34:0 35:0 36:0 37:0 38:0 39:0 40:64 41:0 42:0 43:0 44:0 45:0 46:0 47:0 48:0 
1 0.233727536683133 1:38 2:4 3:520 4:0 5:1 6:128 7:0 8:0 9:0 10:0 11:0 12:0 13:0 14:0 15:0 16:0 17:0 18:0 19:0 20:0 21:0 22:0 23:0 24:0 25:24 26:0 27:0 28:0 29:0 30:0 31:0 32:0 33:0 34:1 35:0 36:0 37:0 38:0 39:0 40:0 41:0 42:0 43:0 44:0 45:0 46:0 47:0 48:0 
1 1 1:704 2:2 3:256 4:0 5:32 6:0 7:0 8:0 9:0 10:0 11:0 12:0 13:0 14:0 15:0 16:0 17:2 18:4 19:0 20:0 21:0 22:0 23:0 24:0 25:0 26:0 27:0 28:0 29:0 30:8 31:0 32:0 33:0 34:0 35:0 36:0 37:0 38:0 39:0 40:0 41:0 42:0 43:0 44:0 45:0 46:0 47:0 48:0 
1 1 1:665 2:1 3:256 4:0 5:2 6:0 7:0 8:0 9:0 10:0 11:0 12:0 13:0 14:0 15:32 16:0 17:0 18:0 19:0 20:0 21:0 22:0 23:0 24:0 25:0 26:0 27:2 28:0 29:0 30:0 31:0 32:0 33:0 34:0 35:0 36:0 37:0 38:0 39:0 40:0 41:0 42:0 43:0 44:0 45:0 46:0 47:0 48:0 
0.7812944099724249 0.1215846124317173 1:332 2:1 3:4 4:0 5:0 6:1 7:32 8:0 9:0 10:0 11:0 12:0 13:0 14:0 15:0 16:0 17:0 18:0 19:0 20:0 21:0 22:0 23:16 24:0 25:0 26:0 27:0 28:0 29:0 30:0 31:512 32:0 33:0 34:0 35:0 36:0 37:0 38:0 39:0 40:2 41:0 42:0 43:0 44:0 45:0 46:0 47:0 48:0 
1 0.2334828340027605 1:692 2:2 3:256 4:0 5:2 6:0 7:0 8:0 9:0 10:0 11:0 12:0 13:0 14:0 15:16 16:0 17:0 18:64 19:0 20:0 21:0 22:0 23:0 24:0 25:0 26:0 27:1 28:0 29:0 30:128 31:0 32:0 33:0 34:0 35:0 36:0 37:0 38:0 39:0 40:0 41:0 42:0 43:0 44:0 45:0 46:0 47:0 48:0 
0.7097068720582068 0.07295533698705037 1:763 2:2 3:256 4:0 5:32 6:0 7:0 8:0 9:0 10:0 11:0 12:0 13:0 14:0 15:0 16:0 17:2 18:4 19:0 20:0 21:0 22:0 23:0 24:0 25:0 26:0 27:0 28:0 29:0 30:8 31:0 32:0 33:0 34:0 35:0 36:0 37:0 38:0 39:0 40:0 41:0 42:0 43:0 44:0 45:0 46:0 47:0 48:0 
1 1 1:996 2:2 3:256 4:0 5:32 6:0 7:0 8:0 9:0 10:0 11:0 12:0 13:0 14:0 15:0 16:0 17:0 18:1 19:0 20:0 21:0 22:0 23:0 24:0 25:0 26:0 27:0 28:0 29:0 30:2 31:0 32:0 33:0 34:0 35:0 36:0 37:0 38:0 39:0 40:0 41:0 42:0 43:0 44:0 45:0 46:0 47:0 48:0 
1 0.2262142515907327 1:1084 2:1 3:256 4:0 5:2 6:0 7:0 8:0 9:0 10:0 11:0 12:0 13:0 14:0 15:0 16:256 17:0 18:0 19:0 20:0 21:0 22:0 23:0 24:0 25:0 26:0 27:0 28:0 29:0 30:0 31:0 32:0 33:0 34:0 35:0 36:0 37:0 38:0 39:0 40:0 41:0 42:0 43:0 44:0 45:0 46:0 47:0 48:0 
1 0 1:135 2:2 3:4 4:0 5:0 6:0 7:48 8:0 9:0 10:0 11:0 12:0 13:0 14:0 15:0 16:0 17:0 18:0 19:0 20:0 21:0 22:0 23:0 24:0 25:0 26:0 27:0 28:0 29:0 30:0 31:0 32:0 33:4 34:0 35:0 36:0 37:0 38:0 39:0 40:0 41:4 42:0 43:0 44:0 45:0 46:0 47:0 48:0 
1 0 1:246 2:2 3:4 4:0 5:0 6:0 7:48 8:0 9:0 10:0 11:0 12:0 13:0 14:0 15:0 16:0 17:0 18:0 19:0 20:0 21:0 22:0 23:0 24:0 25:0 26:0 27:0 28:0 29:0 30:0 31:0 32:0 33:4 34:0 35:0 36:0 37:0 38:0 39:0 40:0 41:4 42:0 43:0 44:0 45:0 46:0 47:0 48:0 
1 0.2337315206544711 1:760 2:1 3:260 4:4 5:2 6:0 7:0 8:0 9:16 10:2 11:0 12:64 13:0 14:0 15:0 16:0 17:0 18:128 19:0 20:0 21:8 22:0 23:64 24:0 25:0 26:0 27:0 28:0 29:0 30:512 31:0 32:0 33:0 34:0 35:0 36:0 37:0 38:0 39:0 40:0 41:0 42:0 43:0 44:0 45:0 46:0 47:0 48:0 
0.6220535470969077 1 1:1107 2:1 3:256 4:0 5:34 6:0 7:0 8:0 9:0 10:0 11:0 12:0 13:0 14:0 15:0 16:0 17:2 18:5 19:0 20:0 21:0 22:0 23:0 24:0 25:0 26:0 27:0 28:0 29:0 30:8 31:0 32:0 33:0 34:0 35:0 36:0 37:0 38:0 39:0 40:0 41:0 42:0 43:0 44:0 45:0 46:0 47:0 48:0 
0.8365848094239705 0.1500082631723415 1:915 2:1 3:256 4:0 5:2 6:0 7:0 8:0 9:0 10:0 11:0 12:0 13:0 14:0 15:0 16:0 17:0 18:0 19:0 20:0 21:0 22:0 23:0 24:0 25:0 26:0 27:1 28:0 29:0 30:0 31:0 32:0 33:0 34:0 35:0 36:0 37:0 38:0 39:0 40:0 41:0 42:0 43:0 44:0 45:0 46:0 47:0 48:0 
1 0.1852075515814033 1:881 2:1 3:64 4:0 5:8 6:0 7:0 8:0 9:0 10:0 11:0 12:0 13:0 14:0 15:0 16:0 17:0 18:0 19:0 20:0 21:0 22:0 23:0 24:0 25:0 26:0 27:0 28:0 29:0 30:0 31:0 32:0 33:0 34:0 35:0 36:0 37:0 38:0 39:0 40:0 41:0 42:0 43:0 44:32 45:0 46:0 47:0 48:0 
1 0.2337481801694331 1:419 2:1 3:4 4:0 5:0 6:1 7:32 8:0 9:0 10:0 11:0 12:0 13:0 14:0 15:0 16:0 17:0 18:0 19:0 20:0 21:0 22:0 23:16 24:0 25:0 26:0 27:0 28:0 29:0 30:0 31:512 32:0 33:0 34:0 35:0 36:0 37:0 38:0 39:0 40:130 41:4 42:0 43:0 44:0 45:0 46:0 47:0 48:0 
1 0.2338327543348742 1:252 2:1 3:260 4:0 5:2 6:0 7:48 8:0 9:0 10:0 11:0 12:0 13:0 14:16 15:0 16:0 17:0 18:0 19:16 20:0 21:0 22:0 23:0 24:0 25:0 26:1 27:0 28:0 29:0 30:0 31:2 32:0 33:0 34:0 35:0 36:0 37:0 38:0 39:0 40:0 41:0 42:0 43:0 44:0 45:0 46:0 47:0 48:0 
1 0 1:696 2:1 3:256 4:0 5:2 6:0 7:0 8:0 9:0 10:0 11:0 12:0 13:0 14:0 15:16 16:0 17:0 18:0 19:0 20:0 21:0 22:0 23:0 24:0 25:0 26:0 27:1 28:0 29:0 30:0 31:0 32:0 33:0 34:0 35:0 36:0 37:0 38:0 39:0 40:0 41:0 42:0 43:0 44:0 45:0 46:0 47:0 48:0 
0.238128099411779 0 1:1067 2:1 3:256 4:0 5:2 6:0 7:0 8:0 9:0 10:0 11:0 12:0 13:0 14:0 15:16 16:0 17:0 18:0 19:0 20:0 21:0 22:0 23:0 24:0 25:0 26:0 27:1 28:0 29:0 30:0 31:0 32:0 33:0 34:0 35:0 36:0 37:0 38:0 39:0 40:0 41:0 42:0 43:0 44:0 45:0 46:0 47:0 48:0 
1 0.285547289886325 1:726 2:1 3:256 4:0 5:2 6:0 7:0 8:0 9:0 10:0 11:0 12:0 13:0 14:0 15:16 16:0 17:0 18:0 19:0 20:0 21:0 22:0 23:0 24:0 25:0 26:0 27:1 28:0 29:0 30:0 31:0 32:0 33:0 34:0 35:0 36:0 37:0 38:0 39:0 40:0 41:0 42:0 43:0 44:0 45:0 46:0 47:0 48:0 
1 0.18821277666009 1:83 2:1 3:256 4:0 5:2 6:0 7:0 8:0 9:0 10:0 11:0 12:0 13:0 14:0 15:32 16:0 17:0 18:0 19:0 20:0 21:0 22:0 23:0 24:0 25:0 26:0 27:0 28:0 29:0 30:0 31:0 32:0 33:0 34:0 35:0 36:0 37:0 38:0 39:0 40:0 41:0 42:0 43:0 44:0 45:0 46:0 47:0 48:0 
1 0.1782098328411023 1:270 2:2 3:4 4:0 5:0 6:0 7:48 8:0 9:0 10:0 11:0 12:0 13:0 14:0 15:0 16:0 17:0 18:0 19:0 20:0 21:0 22:0 23:0 24:0 25:0 26:0 27:0 28:0 29:0 30:0 31:0 32:0 33:8 34:0 35:0 36:0 37:0 38:0 39:0 40:0 41:12 42:0 43:0 44:0 45:0 46:0 47:0 48:0 
1 0.2338359445778039 1:314 2:2 3:260 4:0 5:2 6:0 7:48 8:0 9:0 10:0 11:0 12:0 13:0 14:0 15:0 16:0 17:0 18:0 19:0 20:0 21:0 22:0 23:0 24:0 25:0 26:1 27:0 28:2 29:0 30:0 31:0 32:0 33:8 34:0 35:0 36:0 37:0 38:0 39:0 40:0 41:8 42:0 43:0 44:0 45:0 46:0 47:0 48:0 
1 0 1:1033 2:1 3:256 4:0 5:2 6:0 7:0 8:0 9:0 10:0 11:0 12:0 13:0 14:0 15:16 16:0 17:0 18:0 19:0 20:0 21:0 22:0 23:0 24:0 25:0 26:0 27:1 28:0 29:0 30:0 31:0 32:0 33:0 34:0 35:0 36:0 37:0 38:0 39:0 40:0 41:0 42:0 43:0 44:0 45:0 46:0 47:0 48:0 
1 0.2336116241115948 1:91 2:2 3:4 4:0 5:0 6:0 7:16 8:0 9:0 10:0 11:0 12:0 13:0 14:0 15:0 16:0 17:0 18:0 19:0 20:0 21:0 22:0 23:0 24:0 25:0 26:0 27:0 28:0 29:0 30:0 31:0 32:128 33:4 34:0 35:0 36:0 37:0 38:0 39:0 40:0 41:0 42:0 43:0 44:0 45:0 46:0 47:0 48:0 
0.2192049007699512 0 1:1 2:1 3:256 4:0 5:34 6:0 7:0 8:0 9:0 10:0 11:0 12:0 13:0 14:0 15:0 16:0 17:0 18:5 19:0 20:0 21:0 22:0 23:0 24:0 25:0 26:0 27:0 28:0 29:0 30:10 31:0 32:0 33:0 34:0 35:0 36:0 37:0 38:0 39:0 40:0 41:0 42:0 43:0 44:0 45:0 46:0 47:0 48:0 
1 0.2338651417530217 1:948 2:1 3:272 4:0 5:18 6:0 7:0 8:0 9:0 10:0 11:0 12:0 13:0 14:128 15:0 16:0 17:0 18:0 19:0 20:0 21:0 22:0 23:0 24:0 25:0 26:8 27:0 28:0 29:0 30:0 31:0 32:0 33:0 34:0 35:0 36:0 37:0 38:0 39:0 40:0 41:0 42:0 43:0 44:0 45:0 46:0 47:0 48:0 
1 0.2070012105996268 1:276 2:2 3:4 4:0 5:0 6:0 7:48 8:0 9:0 10:0 11:0 12:0 13:0 14:0 15:0 16:0 17:0 18:0 19:0 20:0 21:0 22:0 23:0 24:0 25:0 26:0 27:0 28:0 29:0 30:0 31:0 32:128 33:4 34:0 35:0 36:0 37:0 38:0 39:0 40:128 41:4 42:0 43:0 44:0 45:0 46:0 47:0 48:0 
1 1 1:1042 2:2 3:256 4:0 5:32 6:0 7:0 8:0 9:0 10:0 11:0 12:0 13:0 14:0 15:0 16:0 17:0 18:4 19:0 20:0 21:0 22:0 23:0 24:0 25:0 26:0 27:0 28:0 29:0 30:8 31:0 32:0 33:0 34:0 35:0 36:0 37:0 38:0 39:0 40:0 41:0 42:0 43:0 44:0 45:0 46:0 47:0 48:0 
1 0 1:757 2:1 3:256 4:0 5:2 6:0 7:0 8:0 9:0 10:0 11:0 12:0 13:0 14:0 15:16 16:0 17:0 18:0 19:0 20:0 21:0 22:0 23:0 24:0 25:0 26:0 27:1 28:0 29:0 30:0 31:0 32:0 33:0 34:0 35:0 36:0 37:0 38:0 39:0 40:0 41:0 42:0 43:0 44:0 45:0 46:0 47:0 48:0 
1 0.2338852456457293 1:902 2:1 3:320 4:0 5:10 6:0 7:0 8:0 9:0 10:0 11:0 12:0 13:0 14:0 15:16 16:0 17:0 18:0 19:0 20:0 21:0 22:0 23:0 24:0 25:0 26:0 27:1 28:0 29:0 30:0 31:0 32:0 33:0 34:0 35:0 36:0 37:8 38:0 39:0 40:0 41:0 42:0 43:0 44:0 45:0 46:0 47:0 48:0 
1 0.07646775774477704 1:246 2:2 3:4 4:0 5:0 6:0 7:48 8:0 9:0 10:0 11:0 12:0 13:0 14:0 15:0 16:0 17:0 18:0 19:0 20:0 21:0 22:0 23:0 24:0 25:0 26:0 27:0 28:0 29:0 30:0 31:0 32:0 33:4 34:0 35:0 36:0 37:0 38:0 39:0 40:0 41:4 42:0 43:0 44:0 45:0 46:0 47:0 48:0 
1 0.2341524116973802 1:410 2:2 3:4 4:0 5:0 6:0 7:16 8:0 9:0 10:0 11:0 12:0 13:0 14:0 15:0 16:0 17:0 18:0 19:0 20:0 21:0 22:0 23:0 24:0 25:0 26:0 27:0 28:0 29:0 30:0 31:0 32:0 33:40 34:0 35:0 36:0 37:0 38:0 39:0 40:0 41:0 42:0 43:0 44:0 45:0 46:0 47:0 48:0 
1 0.2338449885618302 1:1117 2:1 3:256 4:0 5:2 6:0 7:0 8:0 9:0 10:0 11:0 12:0 13:0 14:32 15:0 16:0 17:0 18:0 19:0 20:0 21:0 22:0 23:0 24:0 25:0 26:2 27:0 28:0 29:0 30:0 31:0 32:0 33:0 34:0 35:0 36:0 37:0 38:0 39:0 40:0 41:0 42:0 43:0 44:0 45:0 46:0 47:0 48:0 
1 0.2338949124000076 1:690 2:1 3:260 4:0 5:2 6:1 7:0 8:0 9:0 10:0 11:0 12:0 13:0 14:0 15:0 16:0 17:0 18:2 19:0 20:0 21:0 22:0 23:16 24:0 25:0 26:0 27:0 28:0 29:0 30:4 31:512 32:0 33:0 34:0 35:0 36:0 37:0 38:0 39:0 40:0 41:0 42:0 43:0 44:0 45:0 46:0 47:0 48:0 
1 0.2339324614251062 1:618 2:1 3:276 4:0 5:18 6:0 7:0 8:1 9:16 10:0 11:0 12:0 13:0 14:64 15:0 16:0 17:0 18:0 19:0 20:0 21:0 22:0 23:0 24:0 25:0 26:4 27:0 28:0 29:0 30:0 31:0 32:0 33:0 34:0 35:0 36:0 37:0 38:0 39:0 40:0 41:0 42:0 43:0 44:0 45:0 46:0 47:0 48:0 
0.03069253513824441 0 1:414 2:2 3:4 4:0 5:0 6:0 7:48 8:0 9:0 10:0 11:0 12:0 13:0 14:0 15:0 16:0 17:0 18:0 19:0 20:0 21:0 22:0 23:0 24:0 25:0 26:0 27:0 28:0 29:0 30:0 31:0 32:128 33:4 34:0 35:0 36:0 37:0 38:0 39:0 40:128 41:4 42:0 43:0 44:0 45:0 46:0 47:0 48:0 
1 0.2342030814750596 1:695 2:1 3:256 4:0 5:2 6:0 7:0 8:0 9:0 10:0 11:0 12:0 13:0 14:0 15:0 16:256 17:0 18:0 19:0 20:0 21:0 22:0 23:0 24:0 25:0 26:0 27:0 28:0 29:32 30:0 31:0 32:0 33:0 34:0 35:0 36:0 37:0 38:0 39:0 40:0 41:0 42:0 43:0 44:0 45:0 46:0 47:0 48:0 
1 0.2259749285939129 1:17 2:1 3:256 4:0 5:2 6:0 7:0 8:0 9:0 10:0 11:0 12:0 13:0 14:0 15:16 16:0 17:0 18:0 19:0 20:0 21:0 22:0 23:0 24:0 25:0 26:0 27:1 28:0 29:0 30:0 31:0 32:0 33:0 34:0 35:0 36:0 37:0 38:0 39:0 40:0 41:0 42:0 43:0 44:0 45:0 46:0 47:0 48:0 
1 0.2339864245322357 1:87 2:1 3:516 4:0 5:0 6:513 7:1 8:0 9:0 10:0 11:0 12:0 13:0 14:0 15:0 16:0 17:0 18:0 19:0 20:0 21:0 22:0 23:28 24:0 25:0 26:0 27:0 28:0 29:0 30:0 31:640 32:0 33:0 34:0 35:0 36:0 37:0 38:0 39:0 40:0 41:0 42:0 43:0 44:0 45:0 46:0 47:0 48:0 
0.630176933309049 0.09287568301128718 1:989 2:1 3:256 4:0 5:2 6:0 7:0 8:0 9:0 10:0 11:0 12:0 13:0 14:0 15:16 16:0 17:0 18:0 19:0 20:0 21:0 22:0 23:0 24:0 25:0 26:0 27:0 28:0 29:0 30:0 31:0 32:0 33:0 34:0 35:0 36:0 37:0 38:0 39:0 40:0 41:0 42:0 43:0 44:0 45:0 46:0 47:0 48:0 
1 0.1853902825719211 1:300 2:2 3:4 4:0 5:0 6:0 7:48 8:0 9:0 10:0 11:0 12:0 13:0 14:0 15:0 16:0 17:0 18:0 19:0 20:0 21:0 22:0 23:0 24:0 25:0 26:0 27:0 28:0 29:0 30:0 31:0 32:128 33:4 34:0 35:0 36:0 37:0 38:0 39:0 40:128 41:4 42:0 43:0 44:0 45:0 46:0 47:0 48:0 
0.5588129062678472 1 1:1107 2:1 3:256 4:0 5:34 6:0 7:0 8:0 9:0 10:0 11:0 12:0 13:0 14:0 15:0 16:0 17:2 18:4 19:0 20:0 21:0 22:0 23:0 24:0 25:0 26:0 27:0 28:0 29:8 30:8 31:0 32:0 33:0 34:0 35:0 36:0 37:0 38:0 39:0 40:0 41:0 42:0 43:0 44:0 45:0 46:0 47:0 48:0 
1 0.2503846381134261 1:1099 2:1 3:256 4:0 5:2 6:0 7:0 8:0 9:0 10:0 11:0 12:0 13:0 14:0 15:0 16:0 17:0 18:2 19:0 20:0 21:0 22:0 23:0 24:0 25:0 26:0 27:0 28:0 29:0 30:4 31:0 32:0 33:0 34:0 35:0 36:0 37:0 38:0 39:0 40:0 41:0 42:0 43:0 44:0 45:0 46:0 47:0 48:0 
1 0.1644815335755485 1:921 2:1 3:256 4:0 5:2 6:0 7:0 8:0 9:0 10:0 11:0 12:0 13:0 14:0 15:0 16:0 17:0 18:1 19:0 20:0 21:0 22:0 23:0 24:0 25:0 26:0 27:0 28:0 29:0 30:0 31:0 32:0 33:0 34:0 35:0 36:0 37:0 38:0 39:0 40:0 41:0 42:0 43:0 44:0 45:0 46:0 47:0 48:0 
1 0.233832575665711 1:37 2:1 3:256 4:0 5:2 6:0 7:0 8:0 9:0 10:0 11:0 12:0 13:0 14:0 15:0 16:0 17:0 18:0 19:0 20:0 21:0 22:0 23:0 24:0 25:0 26:128 27:0 28:0 29:0 30:0 31:0 32:0 33:0 34:0 35:0 36:0 37:0 38:0 39:0 40:0 41:0 42:0 43:0 44:0 45:0 46:0 47:0 48:0 
0 1 1:1052 2:1 3:256 4:0 5:34 6:0 7:0 8:0 9:0 10:0 11:0 12:0 13:0 14:0 15:0 16:0 17:0 18:5 19:0 20:0 21:0 22:0 23:0 24:0 25:0 26:0 27:0 28:0 29:0 30:10 31:0 32:0 33:0 34:0 35:0 36:0 37:0 38:0 39:0 40:0 41:0 42:0 43:0 44:0 45:0 46:0 47:0 48:0 
1 0.234024870863727 1:642 2:1 3:4 4:0 5:0 6:1 7:0 8:192 9:0 10:0 11:0 12:0 13:0 14:0 15:0 16:0 17:0 18:0 19:0 20:0 21:0 22:0 23:16 24:0 25:0 26:0 27:0 28:0 29:0 30:0 31:0 32:0 33:0 34:0 35:0 36:0 37:0 38:16 39:0 40:0 41:0 42:0 43:0 44:0 45:0 46:512 47:1 48:0 
1 0.2339515752654599 1:657 2:1 3:1344 4:0 5:266 6:0 7:0 8:0 9:0 10:0 11:0 12:0 13:0 14:0 15:0 16:256 17:0 18:0 19:0 20:0 21:0 22:0 23:0 24:0 25:0 26:0 27:0 28:0 29:0 30:0 31:0 32:0 33:0 34:0 35:64 36:0 37:8 38:0 39:0 40:0 41:0 42:0 43:16 44:32 45:0 46:0 47:0 48:0 
1 0.1697767576195299 1:945 2:1 3:256 4:0 5:2 6:0 7:0 8:0 9:0 10:0 11:0 12:0 13:0 14:0 15:0 16:0 17:0 18:2 19:0 20:0 21:0 22:0 23:0 24:0 25:0 26:0 27:0 28:0 29:0 30:4 31:0 32:0 33:0 34:0 35:0 36:0 37:0 38:0 39:0 40:0 41:0 42:0 43:0 44:0 45:0 46:0 47:0 48:0 
1 0.1988958334821127 1:322 2:2 3:4 4:0 5:0 6:0 7:48 8:0 9:0 10:0 11:0 12:0 13:0 14:0 15:0 16:0 17:0 18:0 19:0 20:0 21:0 22:0 23:0 24:0 25:0 26:0 27:0 28:0 29:0 30:0 31:0 32:0 33:4 34:0 35:0 36:0 37:0 38:0 39:0 40:0 41:4 42:0 43:0 44:0 45:0 46:0 47:0 48:0 
1 0.2325306637722606 1:714 2:2 3:272 4:0 5:18 6:0 7:0 8:0 9:0 10:0 11:0 12:0 13:0 14:0 15:16 16:0 17:0 18:0 19:0 20:0 21:0 22:0 23:0 24:0 25:0 26:0 27:1 28:0 29:0 30:0 31:0 32:0 33:0 34:0 35:0 36:0 37:0 38:0 39:0 40:0 41:0 42:0 43:0 44:0 45:0 46:0 47:0 48:0 
1 0.2339601557705127 1:1079 2:4 3:128 4:0 5:0 6:4 7:0 8:0 9:0 10:0 11:0 12:0 13:0 14:0 15:0 16:0 17:0 18:0 19:0 20:0 21:0 22:0 23:0 24:0 25:0 26:0 27:0 28:0 29:0 30:0 31:0 32:4 33:0 34:0 35:0 36:0 37:0 38:0 39:0 40:8 41:0 42:0 43:0 44:0 45:0 46:0 47:0 48:0 
0.735007123975936 0.2328195053597858 1:1084 2:1 3:256 4:0 5:2 6:0 7:0 8:0 9:0 10:0 11:0 12:0 13:0 14:0 15:16 16:256 17:0 18:0 19:0 20:0 21:0 22:0 23:0 24:0 25:0 26:0 27:1 28:0 29:0 30:0 31:0 32:0 33:0 34:0 35:0 36:0 37:0 38:0 39:0 40:0 41:0 42:0 43:0 44:0 45:0 46:0 47:0 48:0 
0 1 1:798 2:2 3:256 4:0 5:32 6:0 7:0 8:0 9:0 10:0 11:0 12:0 13:0 14:0 15:0 16:0 17:0 18:4 19:0 20:0 21:0 22:0 23:0 24:0 25:0 26:0 27:0 28:0 29:0 30:8 31:0 32:0 33:0 34:0 35:0 36:0 37:0 38:0 39:0 40:0 41:0 42:0 43:0 44:0 45:0 46:0 47:0 48:0 
0.754850056800062 0.1177751520662707 1:865 2:1 3:4 4:0 5:0 6:16 7:0 8:0 9:0 10:0 11:0 12:0 13:0 14:0 15:0 16:0 17:0 18:0 19:0 20:0 21:0 22:0 23:0 24:0 25:0 26:0 27:0 28:0 29:0 30:0 31:0 32:0 33:512 34:0 35:0 36:0 37:0 38:0 39:0 40:0 41:256 42:0 43:0 44:0 45:0 46:0 47:0 48:0 
1 0.1553834536846891 1:39 2:1 3:4 4:0 5:0 6:1 7:0 8:0 9:0 10:0 11:0 12:0 13:0 14:0 15:0 16:0 17:0 18:0 19:0 20:0 21:0 22:0 23:16 24:0 25:0 26:0 27:0 28:0 29:0 30:0 31:512 32:0 33:0 34:0 35:0 36:0 37:0 38:0 39:0 40:0 41:0 42:0 43:0 44:0 45:0 46:0 47:0 48:0 
1 0.2339620964841281 1:990 2:1 3:256 4:0 5:2 6:0 7:0 8:0 9:0 10:0 11:0 12:0 13:0 14:0 15:0 16:0 17:0 18:128 19:0 20:0 21:0 22:0 23:0 24:0 25:0 26:0 27:0 28:0 29:0 30:512 31:0 32:0 33:0 34:0 35:0 36:0 37:0 38:0 39:0 40:0 41:0 42:0 43:0 44:0 45:0 46:0 47:0 48:0 
1 0.2336235909124399 1:272 2:1 3:4 4:0 5:0 6:1 7:32 8:0 9:0 10:0 11:0 12:0 13:0 14:0 15:0 16:0 17:0 18:0 19:0 20:0 21:0 22:0 23:16 24:0 25:0 26:0 27:0 28:0 29:0 30:0 31:512 32:0 33:0 34:0 35:0 36:0 37:0 38:0 39:0 40:2 41:0 42:0 43:0 44:0 45:0 46:0 47:0 48:0 
1 1 1:821 2:2 3:256 4:0 5:32 6:0 7:0 8:0 9:0 10:0 11:0 12:0 13:0 14:0 15:0 16:0 17:2 18:4 19:0 20:0 21:0 22:0 23:0 24:0 25:0 26:0 27:0 28:0 29:8 30:8 31:0 32:0 33:0 34:0 35:0 36:0 37:0 38:0 39:0 40:0 41:0 42:0 43:0 44:0 45:0 46:0 47:0 48:0 
0.873200448386151 0.1357686442591662 1:363 2:2 3:4 4:0 5:0 6:0 7:16 8:0 9:0 10:0 11:0 12:0 13:0 14:0 15:0 16:0 17:0 18:0 19:0 20:0 21:0 22:0 23:0 24:0 25:0 26:0 27:0 28:0 29:0 30:0 31:0 32:128 33:4 34:0 35:0 36:0 37:0 38:0 39:0 40:0 41:0 42:0 43:0 44:0 45:0 46:0 47:0 48:0 
1 0.2144473502288151 1:226 2:2 3:4 4:0 5:0 6:0 7:48 8:0 9:0 10:0 11:0 12:0 13:0 14:0 15:0 16:0 17:0 18:0 19:0 20:0 21:0 22:0 23:0 24:0 25:0 26:0 27:0 28:0 29:0 30:0 31:0 32:128 33:12 34:0 35:0 36:0 37:0 38:0 39:0 40:128 41:12 42:0 43:0 44:0 45:0 46:0 47:0 48:0 
0 1 1:976 2:2 3:256 4:0 5:32 6:0 7:0 8:0 9:0 10:0 11:0 12:0 13:0 14:0 15:0 16:0 17:0 18:4 19:0 20:0 21:0 22:0 23:0 24:0 25:0 26:0 27:0 28:0 29:0 30:8 31:0 32:0 33:0 34:0 35:0 36:0 37:0 38:0 39:0 40:0 41:0 42:0 43:0 44:0 45:0 46:0 47:0 48:0 
0.9723983988816296 0.2170709514878854 1:1020 2:1 3:256 4:0 5:2 6:0 7:0 8:0 9:0 10:0 11:0 12:0 13:0 14:0 15:0 16:0 17:0 18:0 19:0 20:0 21:0 22:0 23:0 24:0 25:0 26:0 27:1 28:0 29:0 30:0 31:0 32:0 33:0 34:0 35:0 36:0 37:0 38:0 39:0 40:0 41:0 42:0 43:0 44:0 45:0 46:0 47:0 48:0 
0.9748338520969115 0.1054564354483835 1:224 2:2 3:4 4:0 5:0 6:0 7:48 8:0 9:0 10:0 11:0 12:0 13:0 14:0 15:0 16:0 17:0 18:0 19:0 20:0 21:0 22:0 23:0 24:0 25:0 26:0 27:0 28:0 29:0 30:0 31:0 32:0 33:4 34:0 35:0 36:0 37:0 38:0 39:0 40:0 41:4 42:0 43:0 44:0 45:0 46:0 47:0 48:0 
1 0.2338597038328705 1:441 2:2 3:4 4:0 5:0 6:0 7:48 8:0 9:0 10:0 11:0 12:0 13:0 14:0 15:0 16:0 17:0 18:0 19:0 20:0 21:0 22:0 23:0 24:0 25:0 26:0 27:0 28:0 29:0 30:0 31:0 32:128 33:4 34:0 35:0 36:0 37:0 38:0 39:0 40:128 41:4 42:0 43:0 44:0 45:0 46:0 47:0 48:0 
1 0.2342185892126818 1:584 2:1 3:768 4:0 5:2 6:0 7:1 8:0 9:0 10:0 11:0 12:0 13:0 14:0 15:0 16:0 17:8 18:0 19:0 20:0 21:0 22:0 23:8 24:0 25:0 26:0 27:0 28:0 29:32 30:0 31:256 32:0 33:0 34:0 35:0 36:0 37:0 38:0 39:0 40:0 41:0 42:0 43:0 44:0 45:0 46:0 47:0 48:0 
1 1 1:653 2:2 3:256 4:0 5:32 6:0 7:0 8:0 9:0 10:0 11:0 12:0 13:0 14:0 15:0 16:0 17:0 18:4 19:0 20:0 21:0 22:0 23:0 24:0 25:0 26:0 27:0 28:0 29:0 30:8 31:0 32:0 33:0 34:0 35:0 36:0 37:0 38:0 39:0 40:0 41:0 42:0 43:0 44:0 45:0 46:0 47:0 48:0 
1 0 1:354 2:2 3:4 4:0 5:0 6:0 7:48 8:0 9:0 10:0 11:0 12:0 13:0 14:0 15:0 16:0 17:0 18:0 19:0 20:0 21:0 22:0 23:0 24:0 25:0 26:0 27:0 28:0 29:0 30:0 31:0 32:0 33:4 34:0 35:0 36:0 37:0 38:0 39:0 40:0 41:4 42:0 43:0 44:0 45:0 46:0 47:0 48:0 
0.5886726645483007 1 1:846 2:2 3:256 4:0 5:32 6:0 7:0 8:0 9:0 10:0 11:0 12:0 13:0 14:0 15:0 16:0 17:0 18:4 19:0 20:0 21:0 22:0 23:0 24:0 25:0 26:0 27:0 28:0 29:0 30:8 31:0 32:0 33:0 34:0 35:0 36:0 37:0 38:0 39:0 40:0 41:0 42:0 43:0 44:0 45:0 46:0 47:0 48:0 
1 0.2338706267032756 1:1050 2:4 3:384 4:0 5:2 6:12 7:0 8:0 9:0 10:0 11:0 12:0 13:0 14:0 15:0 16:0 17:32 18:0 19:0 20:0 21:0 22:0 23:0 24:0 25:0 26:0 27:0 28:0 29:128 30:0 31:0 32:0 33:0 34:0 35:0 36:0 37:0 38:0 39:0 40:96 41:0 42:0 43:0 44:0 45:0 46:0 47:0 48:0 
1 0.1482933875588726 1:821 2:1 3:256 4:0 5:34 6:0 7:0 8:0 9:0 10:0 11:0 12:0 13:0 14:0 15:0 16:0 17:2 18:4 19:0 20:0 21:0 22:0 23:0 24:0 25:0 26:0 27:0 28:0 29:8 30:0 31:0 32:0 33:0 34:0 35:0 36:0 37:0 38:0 39:0 40:0 41:0 42:0 43:0 44:0 45:0 46:0 47:0 48:0 
0.5993184804932327 0 1:1088 2:1 3:320 4:0 5:10 6:0 7:0 8:0 9:0 10:0 11:0 12:0 13:0 14:0 15:0 16:256 17:0 18:0 19:0 20:0 21:0 22:0 23:0 24:0 25:0 26:0 27:0 28:0 29:0 30:0 31:0 32:0 33:0 34:0 35:0 36:0 37:8 38:0 39:0 40:0 41:0 42:0 43:0 44:0 45:0 46:0 47:0 48:0 
0.7055101840423809 1 1:810 2:1 3:256 4:0 5:32 6:0 7:0 8:0 9:16 10:0 11:0 12:0 13:0 14:0 15:0 16:0 17:0 18:4 19:0 20:0 21:0 22:0 23:0 24:0 25:0 26:0 27:0 28:0 29:0 30:8 31:0 32:0 33:0 34:0 35:0 36:0 37:0 38:0 39:0 40:0 41:0 42:0 43:0 44:0 45:0 46:0 47:0 48:0 
1 0.156722889867487 1:1018 2:1 3:256 4:0 5:34 6:0 7:0 8:0 9:0 10:0 11:0 12:0 13:0 14:0 15:0 16:0 17:2 18:1 19:0 20:0 21:0 22:0 23:0 24:0 25:0 26:0 27:0 28:0 29:8 30:2 31:0 32:0 33:0 34:0 35:0 36:0 37:0 38:0 39:0 40:0 41:0 42:0 43:0 44:0 45:0 46:0 47:0 48:0 
1 0.233961393935343 1:443 2:2 3:4 4:0 5:0 6:0 7:48 8:0 9:0 10:0 11:0 12:0 13:0 14:0 15:0 16:0 17:0 18:0 19:0 20:0 21:0 22:0 23:0 24:0 25:0 26:0 27:0 28:0 29:0 30:0 31:0 32:0 33:4 34:0 35:0 36:0 37:0 38:0 39:0 40:0 41:44 42:0 43:0 44:0 45:0 46:0 47:0 48:0 
1 1 1:1008 2:2 3:256 4:0 5:32 6:0 7:0 8:0 9:0 10:0 11:0 12:0 13:0 14:0 15:0 16:0 17:0 18:5 19:0 20:0 21:0 22:0 23:0 24:0 25:0 26:0 27:0 28:0 29:0 30:10 31:0 32:0 33:0 34:0 35:0 36:0 37:0 38:0 39:0 40:0 41:0 42:0 43:0 44:0 45:0 46:0 47:0 48:0 
1 1 1:1008 2:2 3:256 4:0 5:32 6:0 7:0 8:0 9:0 10:0 11:0 12:0 13:0 14:0 15:0 16:0 17:0 18:5 19:0 20:0 21:0 22:0 23:0 24:0 25:0 26:0 27:0 28:0 29:0 30:8 31:0 32:0 33:0 34:0 35:0 36:0 37:0 38:0 39:0 40:0 41:0 42:0 43:0 44:0 45:0 46:0 47:0 48:0 
1 0.198907213273034 1:365 2:2 3:4 4:0 5:0 6:0 7:48 8:0 9:0 10:0 11:0 12:0 13:0 14:0 15:0 16:0 17:0 18:0 19:0 20:0 21:0 22:0 23:0 24:0 25:0 26:0 27:0 28:0 29:0 30:0 31:0 32:0 33:4 34:0 35:0 36:0 37:0 38:0 39:0 40:0 41:4 42:0 43:0 44:0 45:0 46:0 47:0 48:0 
1 0.2337876751911179 1:794 2:1 3:400 4:0 5:18 6:8 7:0 8:0 9:0 10:0 11:0 12:0 13:0 14:128 15:0 16:0 17:0 18:0 19:0 20:0 21:0 22:0 23:0 24:0 25:0 26:8 27:0 28:0 29:0 30:0 31:0 32:8 33:0 34:0 35:0 36:0 37:0 38:0 39:0 40:0 41:0 42:0 43:0 44:0 45:0 46:0 47:0 48:0 
1 1 1:734 2:1 3:256 4:0 5:34 6:0 7:0 8:0 9:0 10:0 11:0 12:0 13:0 14:0 15:0 16:0 17:2 18:5 19:0 20:0 21:0 22:0 23:0 24:0 25:0 26:0 27:0 28:0 29:8 30:8 31:0 32:0 33:0 34:0 35:0 36:0 37:0 38:0 39:0 40:0 41:0 42:0 43:0 44:0 45:0 46:0 47:0 48:0 
1 0.117672052180111 1:641 2:1 3:4 4:0 5:0 6:0 7:0 8:0 9:1 10:0 11:0 12:0 13:0 14:0 15:0 16:0 17:0 18:0 19:0 20:0 21:0 22:0 23:0 24:0 25:0 26:0 27:0 28:0 29:0 30:0 31:0 32:0 33:0 34:0 35:0 36:0 37:0 38:512 39:0 40:0 41:0 42:0 43:0 44:0 45:0 46:0 47:16 48:0 
1 0.2338769270786181 1:857 2:1 3:256 4:0 5:2 6:0 7:0 8:0 9:0 10:0 11:0 12:0 13:0 14:0 15:0 16:256 17:0 18:0 19:0 20:0 21:0 22:0 23:0 24:0 25:0 26:0 27:1 28:0 29:0 30:0 31:0 32:0 33:0 34:0 35:0 36:0 37:0 38:0 39:0 40:0 41:0 42:0 43:0 44:0 45:0 46:0 47:0 48:0 
1 0.2342505261022926 1:423 2:1 3:256 4:0 5:2 6:0 7:0 8:0 9:0 10:0 11:0 12:0 13:0 14:0 15:0 16:0 17:0 18:0 19:0 20:0 21:0 22:0 23:0 24:0 25:0 26:0 27:0 28:2 29:0 30:0 31:0 32:0 33:0 34:0 35:0 36:0 37:0 38:0 39:0 40:0 41:0 42:0 43:0 44:0 45:0 46:0 47:0 48:0 
1 0.2088788958162572 1:1053 2:1 3:256 4:0 5:34 6:0 7:0 8:0 9:0 10:0 11:0 12:0 13:0 14:0 15:0 16:256 17:0 18:0 19:0 20:0 21:0 22:0 23:0 24:0 25:0 26:0 27:260 28:0 29:0 30:0 31:0 32:0 33:0 34:0 35:0 36:0 37:0 38:0 39:0 40:0 41:0 42:0 43:0 44:0 45:0 46:0 47:0 48:0 
1 0.158300802282238 1:1063 2:1 3:256 4:0 5:2 6:0 7:0 8:0 9:0 10:0 11:0 12:0 13:0 14:0 15:0 16:0 17:0 18:0 19:0 20:0 21:0 22:0 23:0 24:0 25:0 26:0 27:0 28:0 29:0 30:4 31:0 32:0 33:0 34:0 35:0 36:0 37:0 38:0 39:0 40:0 41:0 42:0 43:0 44:0 45:0 46:0 47:0 48:0 
1 0.2334097811344647 1:957 2:1 3:260 4:0 5:2 6:0 7:0 8:0 9:16 10:0 11:0 12:0 13:0 14:0 15:32 16:0 17:0 18:2 19:0 20:0 21:0 22:0 23:0 24:0 25:0 26:0 27:2 28:0 29:0 30:4 31:0 32:0 33:0 34:0 35:0 36:0 37:0 38:0 39:0 40:0 41:0 42:0 43:0 44:0 45:0 46:0 47:0 48:0 
0 1 1:798 2:2 3:256 4:0 5:32 6:0 7:0 8:0 9:0 10:0 11:0 12:0 13:0 14:0 15:0 16:0 17:0 18:4 19:0 20:0 21:0 22:0 23:0 24:0 25:0 26:0 27:0 28:0 29:0 30:8 31:0 32:0 33:0 34:0 35:0 36:0 37:0 38:0 39:0 40:0 41:0 42:0 43:0 44:0 45:0 46:0 47:0 48:0 
1 0.1410232153063161 1:154 2:2 3:4 4:0 5:0 6:0 7:48 8:0 9:0 10:0 11:0 12:0 13:0 14:0 15:0 16:0 17:0 18:0 19:0 20:0 21:0 22:0 23:0 24:0 25:0 26:0 27:0 28:0 29:0 30:0 31:0 32:2 33:0 34:0 35:0 36:0 37:0 38:0 39:0 40:2 41:0 42:0 43:0 44:0 45:0 46:0 47:0 48:0 
0.1956346300767593 0 1:763 2:2 3:256 4:0 5:32 6:0 7:0 8:0 9:0 10:0 11:0 12:0 13:0 14:0 15:0 16:0 17:0 18:4 19:0 20:0 21:0 22:0 23:0 24:0 25:0 26:0 27:0 28:0 29:0 30:8 31:0 32:0 33:0 34:0 35:0 36:0 37:0 38:0 39:0 40:0 41:0 42:0 43:0 44:0 45:0 46:0 47:0 48:0 
0.7794861074526862 1 1:1083 2:1 3:256 4:0 5:2 6:0 7:0 8:0 9:0 10:0 11:0 12:0 13:0 14:0 15:16 16:256 17:0 18:0 19:0 20:0 21:0 22:0 23:0 24:0 25:0 26:0 27:1 28:0 29:0 30:0 31:0 32:0 33:0 34:0 35:0 36:0 37:0 38:0 39:0 40:0 41:0 42:0 43:0 44:0 45:0 46:0 47:0 48:0 
1 0.1723524996773276 1:1052 2:1 3:256 4:0 5:34 6:0 7:0 8:0 9:0 10:0 11:0 12:0 13:0 14:0 15:0 16:0 17:2 18:5 19:0 20:0 21:0 22:0 23:0 24:0 25:0 26:0 27:0 28:0 29:8 30:10 31:0 32:0 33:0 34:0 35:0 36:0 37:0 38:0 39:0 40:0 41:0 42:0 43:0 44:0 45:0 46:0 47:0 48:0 
1 0.2342604583064863 1:802 2:1 3:1344 4:0 5:266 6:0 7:0 8:0 9:0 10:0 11:0 12:0 13:0 14:0 15:0 16:256 17:0 18:0 19:0 20:0 21:0 22:0 23:0 24:0 25:0 26:0 27:0 28:0 29:0 30:0 31:0 32:0 33:0 34:0 35:0 36:2 37:8 38:0 39:0 40:0 41:0 42:0 43:256 44:0 45:0 46:0 47:0 48:0 
1 0.2304102794683466 1:744 2:2 3:256 4:0 5:2 6:0 7:0 8:0 9:0 10:0 11:0 12:0 13:0 14:0 15:0 16:256 17:0 18:0 19:0 20:0 21:0 22:0 23:0 24:0 25:0 26:0 27:1 28:0 29:0 30:0 31:0 32:0 33:0 34:0 35:0 36:0 37:0 38:0 39:0 40:0 41:0 42:0 43:0 44:0 45:0 46:0 47:0 48:0 
1 0.2272433286988671 1:662 2:1 3:256 4:0 5:2 6:0 7:0 8:0 9:0 10:0 11:0 12:0 13:0 14:0 15:16 16:0 17:0 18:8 19:0 20:0 21:0 22:0 23:0 24:0 25:0 26:0 27:1 28:0 29:0 30:16 31:0 32:0 33:0 34:0 35:0 36:0 37:0 38:0 39:0 40:0 41:0 42:0 43:0 44:0 45:0 46:0 47:0 48:0 
1 0.497702863743231 1:1050 2:1 3:320 4:0 5:10 6:0 7:0 8:0 9:0 10:0 11:0 12:0 13:0 14:0 15:0 16:256 17:0 18:0 19:0 20:0 21:256 22:0 23:0 24:0 25:0 26:0 27:512 28:0 29:0 30:0 31:0 32:0 33:0 34:0 35:0 36:0 37:8 38:0 39:0 40:0 41:0 42:0 43:0 44:32 45:0 46:0 47:0 48:0 
1 0.2342707058794297 1:627 2:1 3:384 4:0 5:2 6:8 7:0 8:0 9:0 10:0 11:0 12:0 13:0 14:0 15:0 16:0 17:0 18:0 19:0 20:0 21:0 22:0 23:0 24:0 25:0 26:0 27:0 28:0 29:128 30:0 31:0 32:8 33:0 34:0 35:0 36:0 37:0 38:0 39:0 40:0 41:0 42:0 43:0 44:0 45:0 46:0 47:0 48:0 
1 1 1:763 2:2 3:256 4:0 5:32 6:0 7:0 8:0 9:0 10:0 11:0 12:0 13:0 14:0 15:0 16:0 17:0 18:4 19:0 20:0 21:0 22:0 23:0 24:0 25:0 26:0 27:0 28:0 29:0 30:8 31:0 32:0 33:0 34:0 35:0 36:0 37:0 38:0 39:0 40:0 41:0 42:0 43:0 44:0 45:0 46:0 47:0 48:0 
1 0.2072881755491219 1:314 2:2 3:4 4:0 5:0 6:0 7:48 8:0 9:0 10:0 11:0 12:0 13:0 14:0 15:0 16:0 17:0 18:0 19:0 20:0 21:0 22:0 23:0 24:0 25:0 26:0 27:0 28:0 29:0 30:0 31:0 32:0 33:12 34:0 35:0 36:0 37:0 38:0 39:0 40:0 41:12 42:0 43:0 44:0 45:0 46:0 47:0 48:0 
1 0.7630408287586039 1:846 2:1 3:256 4:0 5:34 6:0 7:0 8:0 9:0 10:0 11:0 12:0 13:0 14:0 15:0 16:0 17:2 18:5 19:0 20:0 21:0 22:0 23:0 24:0 25:0 26:0 27:0 28:0 29:8 30:8 31:0 32:0 33:0 34:0 35:0 36:0 37:0 38:0 39:0 40:0 41:0 42:0 43:0 44:0 45:0 46:0 47:0 48:0 
0.5049744703269889 0.1195520879435541 1:326 2:2 3:4 4:0 5:0 6:0 7:48 8:0 9:0 10:0 11:0 12:0 13:0 14:0 15:0 16:0 17:0 18:0 19:0 20:0 21:0 22:0 23:0 24:0 25:0 26:0 27:0 28:0 29:0 30:0 31:0 32:256 33:0 34:0 35:0 36:0 37:0 38:0 39:0 40:256 41:0 42:0 43:0 44:0 45:0 46:0 47:0 48:0 
1 0.03642007558809664 1:1113 2:1 3:256 4:0 5:2 6:0 7:0 8:0 9:0 10:0 11:0 12:0 13:0 14:0 15:16 16:0 17:0 18:0 19:0 20:0 21:0 22:0 23:0 24:0 25:0 26:0 27:0 28:0 29:0 30:0 31:0 32:0 33:0 34:0 35:0 36:0 37:0 38:0 39:0 40:0 41:0 42:0 43:0 44:0 45:0 46:0 47:0 48:0 
1 0.2338358902751871 1:403 2:2 3:4 4:0 5:0 6:0 7:16 8:0 9:0 10:0 11:0 12:0 13:0 14:0 15:0 16:0 17:0 18:0 19:0 20:0 21:0 22:0 23:0 24:0 25:0 26:0 27:0 28:0 29:0 30:0 31:0 32:0 33:4 34:0 35:0 36:0 37:0 38:0 39:0 40:0 41:0 42:0 43:0 44:0 45:0 46:0 47:0 48:0 
1 0.2342025943389192 1:1033 2:1 3:256 4:0 5:2 6:0 7:0 8:0 9:0 10:0 11:0 12:0 13:0 14:0 15:0 16:0 17:0 18:128 19:0 20:0 21:0 22:0 23:0 24:0 25:0 26:0 27:0 28:0 29:0 30:0 31:0 32:0 33:0 34:0 35:0 36:0 37:0 38:0 39:0 40:0 41:0 42:0 43:0 44:0 45:0 46:0 47:0 48:0 
1 0.2338865054421826 1:79 2:1 3:524 4:0 5:1 6:384 7:0 8:0 9:16 10:0 11:0 12:0 13:512 14:0 15:0 16:0 17:0 18:0 19:0 20:0 21:0 22:128 23:0 24:0 25:16 26:0 27:0 28:0 29:0 30:0 31:4 32:0 33:0 34:1 35:0 36:0 37:0 38:0 39:0 40:0 41:0 42:0 43:0 44:0 45:0 46:0 47:0 48:0 
1 0.2328890334682264 1:922 2:1 3:4 4:0 5:0 6:3 7:0 8:0 9:0 10:0 11:0 12:0 13:0 14:0 15:0 16:0 17:0 18:0 19:0 20:0 21:0 22:0 23:32 24:0 25:0 26:0 27:0 28:0 29:0 30:0 31:512 32:1 33:0 34:0 35:0 36:0 37:0 38:0 39:0 40:0 41:0 42:0 43:0 44:0 45:0 46:0 47:0 48:0 
0 1 1:641 2:1 3:4 4:0 5:0 6:0 7:0 8:20 9:0 10:0 11:0 12:0 13:0 14:0 15:0 16:0 17:0 18:0 19:0 20:0 21:0 22:0 23:0 24:0 25:0 26:0 27:0 28:0 29:0 30:0 31:0 32:0 33:0 34:0 35:0 36:0 37:0 38:8 39:2 40:0 41:0 42:0 43:0 44:0 45:0 46:256 47:64 48:0 
1 1 1:600 2:2 3:256 4:0 5:32 6:0 7:0 8:0 9:0 10:0 11:0 12:0 13:0 14:0 15:0 16:0 17:0 18:4 19:0 20:0 21:0 22:0 23:0 24:0 25:0 26:0 27:0 28:0 29:0 30:8 31:0 32:0 33:0 34:0 35:0 36:0 37:0 38:0 39:0 40:0 41:0 42:0 43:0 44:0 45:0 46:0 47:0 48:0 
0.9558972023518658 0.1363709081913931 1:354 2:2 3:4 4:0 5:0 6:0 7:48 8:0 9:0 10:0 11:0 12:0 13:0 14:0 15:0 16:0 17:0 18:0 19:0 20:0 21:0 22:0 23:0 24:0 25:0 26:0 27:0 28:0 29:0 30:0 31:0 32:128 33:4 34:0 35:0 36:0 37:0 38:0 39:0 40:128 41:4 42:0 43:0 44:0 45:0 46:0 47:0 48:0 
0.3602794184586569 0.1789572913079482 1:355 2:2 3:4 4:0 5:0 6:0 7:48 8:0 9:0 10:0 11:0 12:0 13:0 14:0 15:0 16:0 17:0 18:0 19:0 20:0 21:0 22:0 23:0 24:0 25:0 26:0 27:0 28:0 29:0 30:0 31:0 32:0 33:4 34:0 35:0 36:0 37:0 38:0 39:0 40:0 41:4 42:0 43:0 44:0 45:0 46:0 47:0 48:0 
0.7551544606685638 0.1170094149533771 1:1054 2:2 3:256 4:0 5:2 6:0 7:0 8:0 9:0 10:0 11:0 12:0 13:0 14:0 15:0 16:32 17:0 18:0 19:0 20:0 21:0 22:0 23:0 24:0 25:0 26:0 27:0 28:128 29:0 30:0 31:0 32:0 33:0 34:0 35:0 36:0 37:0 38:0 39:0 40:0 41:0 42:0 43:0 44:0 45:0 46:0 47:0 48:0 
1 0.1140024078115406 1:1042 2:1 3:256 4:0 5:34 6:0 7:0 8:0 9:0 10:0 11:0 12:0 13:0 14:0 15:0 16:0 17:0 18:5 19:0 20:0 21:0 22:0 23:0 24:0 25:0 26:0 27:0 28:0 29:0 30:10 31:0 32:0 33:0 34:0 35:0 36:0 37:0 38:0 39:0 40:0 41:0 42:0 43:0 44:0 45:0 46:0 47:0 48:0 
0 1 1:1075 2:2 3:256 4:0 5:32 6:0 7:0 8:0 9:0 10:0 11:0 12:0 13:0 14:0 15:0 16:0 17:0 18:4 19:0 20:0 21:0 22:0 23:0 24:0 25:0 26:0 27:0 28:0 29:0 30:8 31:0 32:0 33:0 34:0 35:0 36:0 37:0 38:0 39:0 40:0 41:0 42:0 43:0 44:0 45:0 46:0 47:0 48:0 
1 0.2334904748044687 1:460 2:1 3:4 4:0 5:0 6:1 7:48 8:0 9:0 10:0 11:0 12:0 13:0 14:0 15:0 16:0 17:0 18:0 19:0 20:0 21:0 22:0 23:16 24:0 25:0 26:0 27:0 28:0 29:0 30:0 31:512 32:0 33:4 34:0 35:0 36:0 37:0 38:0 39:0 40:130 41:4 42:0 43:0 44:0 45:0 46:0 47:0 48:0 
1 0.7355463279501322 1:821 2:1 3:260 4:0 5:34 6:0 7:0 8:0 9:16 10:0 11:0 12:0 13:0 14:0 15:0 16:0 17:66 18:5 19:0 20:0 21:0 22:0 23:0 24:0 25:0 26:0 27:0 28:0 29:256 30:10 31:0 32:0 33:0 34:0 35:0 36:0 37:0 38:0 39:0 40:0 41:0 42:0 43:0 44:0 45:0 46:0 47:0 48:0 
1 0.2339608292775695 1:989 2:1 3:256 4:4 5:2 6:0 7:0 8:0 9:0 10:2 11:0 12:0 13:0 14:0 15:0 16:256 17:0 18:0 19:0 20:0 21:0 22:0 23:0 24:0 25:0 26:0 27:0 28:0 29:0 30:512 31:0 32:0 33:0 34:0 35:0 36:0 37:0 38:0 39:0 40:0 41:0 42:0 43:0 44:0 45:0 46:0 47:0 48:0 
1 0.2338943118548589 1:603 2:1 3:256 4:0 5:2 6:0 7:0 8:0 9:0 10:0 11:0 12:0 13:0 14:0 15:16 16:256 17:0 18:0 19:0 20:0 21:0 22:0 23:0 24:0 25:0 26:0 27:1 28:0 29:0 30:0 31:0 32:0 33:0 34:0 35:0 36:0 37:0 38:0 39:0 40:0 41:0 42:0 43:0 44:0 45:0 46:0 47:0 48:0 
1 0.233541410250951 1:915 2:1 3:256 4:0 5:2 6:0 7:0 8:0 9:0 10:0 11:0 12:0 13:0 14:0 15:0 16:0 17:0 18:64 19:0 20:0 21:0 22:0 23:0 24:0 25:0 26:0 27:0 28:0 29:0 30:128 31:0 32:0 33:0 34:0 35:0 36:0 37:0 38:0 39:0 40:0 41:0 42:0 43:0 44:0 45:0 46:0 47:0 48:0 
1 1 1:957 2:1 3:256 4:0 5:2 6:0 7:0 8:0 9:0 10:0 11:0 12:0 13:0 14:0 15:0 16:0 17:0 18:2 19:0 20:0 21:0 22:0 23:0 24:0 25:0 26:0 27:0 28:0 29:0 30:4 31:0 32:0 33:0 34:0 35:0 36:0 37:0 38:0 39:0 40:0 41:0 42:0 43:0 44:0 45:0 46:0 47:0 48:0 
0.08409355883388329 1 1:613 2:1 3:256 4:0 5:32 6:0 7:0 8:0 9:16 10:0 11:0 12:0 13:0 14:0 15:0 16:0 17:0 18:4 19:0 20:0 21:0 22:0 23:0 24:0 25:0 26:0 27:0 28:0 29:0 30:8 31:0 32:0 33:0 34:0 35:0 36:0 37:0 38:0 39:0 40:0 41:0 42:0 43:0 44:0 45:0 46:0 47:0 48:0 
1 0.2342613102866432 1:1050 2:1 3:400 4:0 5:18 6:12 7:0 8:0 9:0 10:0 11:0 12:0 13:0 14:0 15:0 16:0 17:32 18:0 19:0 20:0 21:0 22:0 23:0 24:0 25:0 26:8 27:0 28:0 29:0 30:0 31:0 32:4 33:0 34:0 35:0 36:0 37:0 38:0 39:0 40:96 41:0 42:0 43:0 44:0 45:0 46:0 47:0 48:0 
1 0.1538784541788911 1:691 2:2 3:384 4:0 5:2 6:8 7:0 8:0 9:0 10:0 11:0 12:0 13:0 14:0 15:0 16:0 17:32 18:0 19:0 20:0 21:0 22:0 23:0 24:0 25:0 26:0 27:0 28:0 29:0 30:0 31:0 32:8 33:0 34:0 35:0 36:0 37:0 38:0 39:0 40:64 41:0 42:0 43:0 44:0 45:0 46:0 47:0 48:0 
1 0 1:737 2:1 3:256 4:0 5:2 6:0 7:0 8:0 9:0 10:0 11:0 12:0 13:0 14:4 15:0 16:0 17:0 18:0 19:0 20:0 21:0 22:0 23:0 24:0 25:128 26:0 27:0 28:0 29:0 30:0 31:0 32:0 33:0 34:0 35:0 36:0 37:0 38:0 39:0 40:0 41:0 42:0 43:0 44:0 45:0 46:0 47:0 48:0 
1 1 1:1107 2:1 3:256 4:0 5:34 6:0 7:0 8:0 9:0 10:0 11:0 12:0 13:0 14:0 15:0 16:0 17:2 18:4 19:0 20:0 21:0 22:0 23:0 24:0 25:0 26:0 27:0 28:0 29:8 30:8 31:0 32:0 33:0 34:0 35:0 36:0 37:0 38:0 39:0 40:0 41:0 42:0 43:0 44:0 45:0 46:0 47:0 48:0 
1 0.2334639880493045 1:12 2:1 3:260 4:0 5:2 6:0 7:0 8:0 9:16 10:0 11:0 12:0 13:0 14:0 15:0 16:64 17:0 18:0 19:0 20:0 21:0 22:0 23:0 24:0 25:0 26:0 27:0 28:256 29:0 30:0 31:0 32:0 33:0 34:0 35:0 36:0 37:0 38:0 39:0 40:0 41:0 42:0 43:0 44:0 45:0 46:0 47:0 48:0 
1 0.1310974551290537 1:7 2:1 3:256 4:0 5:2 6:0 7:0 8:0 9:0 10:0 11:0 12:0 13:0 14:0 15:0 16:0 17:1 18:0 19:0 20:0 21:0 22:0 23:0 24:0 25:0 26:0 27:0 28:0 29:2 30:0 31:0 32:0 33:0 34:0 35:0 36:0 37:0 38:0 39:0 40:0 41:0 42:0 43:0 44:0 45:0 46:0 47:0 48:0 
1 0.4380174658149635 1:738 2:2 3:256 4:0 5:32 6:0 7:0 8:0 9:0 10:0 11:0 12:0 13:0 14:0 15:0 16:0 17:2 18:0 19:0 20:0 21:0 22:0 23:0 24:0 25:0 26:0 27:0 28:0 29:8 30:0 31:0 32:0 33:0 34:0 35:0 36:0 37:0 38:0 39:0 40:0 41:0 42:0 43:0 44:0 45:0 46:0 47:0 48:0 
1 1 1:1008 2:2 3:256 4:0 5:32 6:0 7:0 8:0 9:0 10:0 11:0 12:0 13:0 14:0 15:0 16:0 17:0 18:5 19:0 20:0 21:0 22:0 23:0 24:0 25:0 26:0 27:0 28:0 29:0 30:8 31:0 32:0 33:0 34:0 35:0 36:0 37:0 38:0 39:0 40:0 41:0 42:0 43:0 44:0 45:0 46:0 47:0 48:0 
1 0 1:818 2:1 3:256 4:0 5:2 6:0 7:0 8:0 9:0 10:0 11:0 12:0 13:0 14:0 15:16 16:0 17:0 18:0 19:0 20:0 21:0 22:0 23:0 24:0 25:0 26:0 27:1 28:0 29:0 30:0 31:0 32:0 33:0 34:0 35:0 36:0 37:0 38:0 39:0 40:0 41:0 42:0 43:0 44:0 45:0 46:0 47:0 48:0 
1 0.2378327010226315 1:1099 2:1 3:256 4:0 5:2 6:0 7:0 8:0 9:0 10:0 11:0 12:0 13:0 14:0 15:32 16:0 17:0 18:0 19:0 20:0 21:0 22:0 23:0 24:0 25:0 26:0 27:2 28:0 29:0 30:0 31:0 32:0 33:0 34:0 35:0 36:0 37:0 38:0 39:0 40:0 41:0 42:0 43:0 44:0 45:0 46:0 47:0 48:0 
0.7645338155717057 0 1:839 2:1 3:256 4:0 5:2 6:0 7:0 8:0 9:0 10:0 11:0 12:0 13:0 14:0 15:0 16:0 17:0 18:0 19:0 20:0 21:0 22:0 23:0 24:0 25:0 26:0 27:1 28:0 29:0 30:0 31:0 32:0 33:0 34:0 35:0 36:0 37:0 38:0 39:0 40:0 41:0 42:0 43:0 44:0 45:0 46:0 47:0 48:0 
1 1 1:767 2:1 3:320 4:0 5:10 6:0 7:0 8:0 9:0 10:0 11:0 12:0 13:0 14:0 15:0 16:256 17:0 18:0 19:0 20:0 21:0 22:0 23:0 24:0 25:0 26:0 27:512 28:0 29:0 30:0 31:0 32:0 33:0 34:0 35:0 36:0 37:8 38:0 39:0 40:0 41:0 42:0 43:0 44:32 45:0 46:0 47:0 48:0 
1 0.2337315222266028 1:704 2:1 3:260 4:0 5:34 6:1 7:0 8:0 9:0 10:0 11:0 12:0 13:0 14:0 15:64 16:0 17:0 18:5 19:0 20:0 21:0 22:0 23:16 24:0 25:0 26:0 27:4 28:0 29:0 30:10 31:512 32:0 33:0 34:0 35:0 36:0 37:0 38:0 39:0 40:0 41:0 42:0 43:0 44:0 45:0 46:0 47:0 48:0 
0.6165781400545429 0 1:1067 2:1 3:256 4:0 5:2 6:0 7:0 8:0 9:0 10:0 11:0 12:0 13:0 14:0 15:0 16:0 17:0 18:0 19:0 20:0 21:0 22:0 23:0 24:0 25:0 26:0 27:1 28:0 29:0 30:0 31:0 32:0 33:0 34:0 35:0 36:0 37:0 38:0 39:0 40:0 41:0 42:0 43:0 44:0 45:0 46:0 47:0 48:0 
1 0.1299828750576757 1:144 2:2 3:4 4:0 5:0 6:0 7:48 8:0 9:0 10:0 11:0 12:0 13:0 14:0 15:0 16:0 17:0 18:0 19:0 20:0 21:0 22:0 23:0 24:0 25:0 26:0 27:0 28:0 29:0 30:0 31:0 32:128 33:4 34:0 35:0 36:0 37:0 38:0 39:0 40:128 41:4 42:0 43:0 44:0 45:0 46:0 47:0 48:0 
0.7740500855479676 0.1182000684697613 1:1097 2:2 3:256 4:0 5:2 6:0 7:0 8:0 9:0 10:0 11:0 12:0 13:0 14:0 15:0 16:256 17:0 18:0 19:0 20:0 21:0 22:0 23:0 24:0 25:0 26:0 27:1 28:0 29:0 30:0 31:0 32:0 33:0 34:0 35:0 36:0 37:0 38:0 39:0 40:0 41:0 42:0 43:0 44:0 45:0 46:0 47:0 48:0 
0.3451674996272814 0.6127591058067414 1:684 2:2 3:256 4:0 5:32 6:0 7:0 8:0 9:0 10:0 11:0 12:0 13:0 14:0 15:0 16:0 17:0 18:4 19:0 20:0 21:0 22:0 23:0 24:0 25:0 26:0 27:0 28:0 29:0 30:8 31:0 32:0 33:0 34:0 35:0 36:0 37:0 38:0 39:0 40:0 41:0 42:0 43:0 44:0 45:0 46:0 47:0 48:0 
1 0.2339320398355714 1:79 2:1 3:524 4:0 5:1 6:321 7:0 8:0 9:16 10:0 11:0 12:0 13:32 14:0 15:0 16:0 17:0 18:0 19:0 20:0 21:0 22:0 23:16 24:0 25:1 26:0 27:0 28:0 29:0 30:0 31:516 32:0 33:0 34:0 35:0 36:0 37:64 38:0 39:0 40:0 41:0 42:0 43:0 44:512 45:0 46:0 47:0 48:0 
0.7558088804191974 0 1:592 2:1 3:4 4:0 5:0 6:1 7:0 8:0 9:0 10:0 11:0 12:0 13:0 14:0 15:0 16:0 17:0 18:0 19:0 20:0 21:0 22:0 23:16 24:0 25:0 26:0 27:0 28:0 29:0 30:0 31:512 32:0 33:0 34:0 35:0 36:0 37:0 38:0 39:0 40:0 41:0 42:0 43:0 44:0 45:0 46:0 47:0 48:0 
1 0.233867682666725 1:767 2:1 3:336 4:0 5:26 6:0 7:0 8:0 9:0 10:0 11:0 12:0 13:0 14:0 15:0 16:0 17:0 18:0 19:0 20:0 21:0 22:0 23:0 24:0 25:0 26:0 27:0 28:0 29:0 30:512 31:0 32:0 33:0 34:0 35:0 36:0 37:8 38:0 39:0 40:0 41:0 42:0 43:0 44:0 45:0 46:0 47:0 48:0 
1 0.2340991474744302 1:549 2:1 3:4 4:0 5:0 6:0 7:0 8:0 9:16 10:0 11:0 12:0 13:0 14:0 15:0 16:0 17:0 18:0 19:0 20:0 21:0 22:0 23:0 24:0 25:0 26:0 27:0 28:0 29:0 30:0 31:0 32:0 33:0 34:0 35:0 36:0 37:0 38:0 39:0 40:0 41:0 42:0 43:0 44:0 45:512 46:0 47:0 48:0 
1 0.2338254538171055 1:877 2:1 3:512 4:0 5:0 6:576 7:0 8:0 9:0 10:0 11:0 12:0 13:0 14:0 15:0 16:0 17:0 18:0 19:0 20:0 21:0 22:0 23:4 24:0 25:0 26:0 27:0 28:0 29:0 30:0 31:128 32:0 33:0 34:0 35:0 36:0 37:64 38:0 39:0 40:0 41:0 42:0 43:0 44:512 45:0 46:0 47:0 48:0 
1 0.1143945463465146 1:831 2:1 3:256 4:0 5:2 6:0 7:0 8:0 9:0 10:0 11:0 12:0 13:0 14:0 15:16 16:256 17:0 18:0 19:0 20:0 21:0 22:0 23:0 24:0 25:0 26:0 27:0 28:0 29:0 30:0 31:0 32:0 33:0 34:0 35:0 36:0 37:0 38:0 39:0 40:0 41:0 42:0 43:0 44:0 45:0 46:0 47:0 48:0 
1 0.2334279281721104 1:1069 2:1 3:256 4:0 5:2 6:0 7:0 8:0 9:0 10:0 11:0 12:0 13:0 14:0 15:16 16:0 17:0 18:64 19:0 20:0 21:0 22:0 23:0 24:0 25:0 26:0 27:1 28:0 29:0 30:128 31:0 32:0 33:0 34:0 35:0 36:0 37:0 38:0 39:0 40:0 41:0 42:0 43:0 44:0 45:0 46:0 47:0 48:0 
1 0.2879578639834071 1:821 2:1 3:256 4:0 5:32 6:0 7:0 8:0 9:16 10:0 11:0 12:0 13:0 14:0 15:0 16:0 17:2 18:5 19:0 20:0 21:0 22:0 23:0 24:0 25:0 26:0 27:0 28:0 29:0 30:0 31:0 32:0 33:0 34:0 35:0 36:0 37:0 38:0 39:0 40:0 41:0 42:0 43:0 44:0 45:0 46:0 47:0 48:0 
1 1 1:962 2:2 3:256 4:0 5:32 6:0 7:0 8:0 9:0 10:0 11:0 12:0 13:0 14:0 15:0 16:0 17:0 18:4 19:0 20:0 21:0 22:0 23:0 24:0 25:0 26:0 27:0 28:0 29:0 30:8 31:0 32:0 33:0 34:0 35:0 36:0 37:0 38:0 39:0 40:0 41:0 42:0 43:0 44:0 45:0 46:0 47:0 48:0 
1 0.1849125666499904 1:856 2:1 3:320 4:0 5:10 6:0 7:0 8:0 9:0 10:0 11:0 12:0 13:0 14:0 15:0 16:256 17:0 18:0 19:0 20:0 21:0 22:0 23:0 24:0 25:0 26:0 27:512 28:0 29:0 30:0 31:0 32:0 33:0 34:0 35:0 36:0 37:0 38:0 39:0 40:0 41:0 42:0 43:0 44:32 45:0 46:0 47:0 48:0 
1 0 1:760 2:1 3:256 4:0 5:2 6:0 7:0 8:0 9:0 10:0 11:0 12:0 13:0 14:0 15:16 16:0 17:0 18:0 19:0 20:0 21:0 22:0 23:0 24:0 25:0 26:0 27:1 28:0 29:0 30:0 31:0 32:0 33:0 34:0 35:0 36:0 37:0 38:0 39:0 40:0 41:0 42:0 43:0 44:0 45:0 46:0 47:0 48:0 
1 1 1:912 2:1 3:256 4:0 5:2 6:0 7:0 8:0 9:0 10:0 11:0 12:0 13:0 14:0 15:0 16:256 17:0 18:0 19:0 20:0 21:0 22:0 23:0 24:0 25:0 26:0 27:1 28:0 29:0 30:0 31:0 32:0 33:0 34:0 35:0 36:0 37:0 38:0 39:0 40:0 41:0 42:0 43:0 44:0 45:0 46:0 47:0 48:0 
1 0.2300136699566911 1:1008 2:1 3:256 4:0 5:34 6:0 7:0 8:0 9:0 10:0 11:0 12:0 13:0 14:0 15:0 16:8 17:0 18:5 19:0 20:0 21:0 22:0 23:0 24:0 25:0 26:0 27:0 28:8 29:0 30:2 31:0 32:0 33:0 34:0 35:0 36:0 37:0 38:0 39:0 40:0 41:0 42:0 43:0 44:0 45:0 46:0 47:0 48:0 
1 0.233969426751342 1:738 2:1 3:256 4:0 5:2 6:0 7:0 8:0 9:0 10:0 11:0 12:0 13:0 14:0 15:0 16:0 17:64 18:0 19:0 20:0 21:0 22:0 23:0 24:0 25:0 26:0 27:0 28:0 29:256 30:0 31:0 32:0 33:0 34:0 35:0 36:0 37:0 38:0 39:0 40:0 41:0 42:0 43:0 44:0 45:0 46:0 47:0 48:0 
0.957877532308004 0.1520576617249998 1:266 2:2 3:4 4:0 5:0 6:0 7:48 8:0 9:0 10:0 11:0 12:0 13:0 14:0 15:0 16:0 17:0 18:0 19:0 20:0 21:0 22:0 23:0 24:0 25:0 26:0 27:0 28:0 29:0 30:0 31:0 32:0 33:4 34:0 35:0 36:0 37:0 38:0 39:0 40:0 41:4 42:0 43:0 44:0 45:0 46:0 47:0 48:0 
1 0.2340146498911115 1:116 2:1 3:260 4:0 5:2 6:0 7:48 8:0 9:0 10:0 11:0 12:0 13:0 14:16 15:0 16:0 17:0 18:0 19:16 20:0 21:0 22:0 23:0 24:0 25:0 26:1 27:0 28:0 29:0 30:0 31:2 32:0 33:0 34:0 35:0 36:0 37:0 38:0 39:0 40:0 41:4 42:0 43:0 44:0 45:0 46:0 47:0 48:0 
0.5044451230614986 1 1:1100 2:1 3:256 4:0 5:34 6:0 7:0 8:0 9:0 10:0 11:0 12:0 13:0 14:0 15:0 16:0 17:0 18:5 19:0 20:0 21:0 22:0 23:0 24:0 25:0 26:0 27:0 28:0 29:0 30:8 31:0 32:0 33:0 34:0 35:0 36:0 37:0 38:0 39:0 40:0 41:0 42:0 43:0 44:0 45:0 46:0 47:0 48:0 
1 0.159577525367402 1:989 2:1 3:256 4:0 5:2 6:0 7:0 8:0 9:0 10:0 11:0 12:0 13:0 14:0 15:0 16:0 17:0 18:0 19:0 20:0 21:0 22:0 23:0 24:0 25:0 26:0 27:1 28:0 29:0 30:0 31:0 32:0 33:0 34:0 35:0 36:0 37:0 38:0 39:0 40:0 41:0 42:0 43:0 44:0 45:0 46:0 47:0 48:0 
0.4567035525507503 0.007466301372333908 1:167 2:2 3:4 4:0 5:0 6:0 7:16 8:0 9:0 10:0 11:0 12:0 13:0 14:0 15:0 16:0 17:0 18:0 19:0 20:0 21:0 22:0 23:0 24:0 25:0 26:0 27:0 28:0 29:0 30:0 31:0 32:128 33:4 34:0 35:0 36:0 37:0 38:0 39:0 40:0 41:0 42:0 43:0 44:0 45:0 46:0 47:0 48:0 
1 0.2337273112029031 1:925 2:1 3:256 4:0 5:2 6:0 7:0 8:0 9:0 10:0 11:0 12:0 13:0 14:0 15:16 16:256 17:0 18:0 19:0 20:0 21:0 22:0 23:0 24:0 25:0 26:0 27:1 28:4 29:0 30:128 31:0 32:0 33:0 34:0 35:0 36:0 37:0 38:0 39:0 40:0 41:0 42:0 43:0 44:0 45:0 46:0 47:0 48:0 
1 0.1124935328997173 1:1030 2:1 3:256 4:0 5:2 6:0 7:0 8:0 9:0 10:0 11:0 12:0 13:0 14:0 15:0 16:256 17:0 18:0 19:0 20:0 21:0 22:0 23:0 24:0 25:0 26:0 27:0 28:0 29:0 30:0 31:0 32:0 33:0 34:0 35:0 36:0 37:0 38:0 39:0 40:0 41:0 42:0 43:0 44:0 45:0 46:0 47:0 48:0 
1 1 1:846 2:2 3:256 4:0 5:32 6:0 7:0 8:0 9:0 10:0 11:0 12:0 13:0 14:0 15:0 16:0 17:0 18:4 19:0 20:0 21:0 22:0 23:0 24:0 25:0 26:0 27:0 28:0 29:0 30:8 31:0 32:0 33:0 34:0 35:0 36:0 37:0 38:0 39:0 40:0 41:0 42:0 43:0 44:0 45:0 46:0 47:0 48:0 
1 1 1:798 2:1 3:256 4:0 5:34 6:0 7:0 8:0 9:0 10:0 11:0 12:0 13:0 14:0 15:0 16:0 17:0 18:4 19:0 20:0 21:0 22:0 23:0 24:0 25:0 26:0 27:0 28:0 29:0 30:8 31:0 32:0 33:0 34:0 35:0 36:0 37:0 38:0 39:0 40:0 41:0 42:0 43:0 44:0 45:0 46:0 47:0 48:0 
1 0.233541410260806 1:661 2:2 3:384 4:0 5:2 6:4 7:0 8:0 9:0 10:0 11:0 12:0 13:0 14:0 15:0 16:0 17:32 18:0 19:0 20:0 21:0 22:0 23:0 24:0 25:0 26:0 27:0 28:0 29:0 30:0 31:0 32:4 33:0 34:0 35:0 36:0 37:0 38:0 39:0 40:0 41:0 42:0 43:0 44:0 45:0 46:0 47:0 48:0 
1 0.2340476959890186 1:984 2:1 3:64 4:0 5:8 6:0 7:0 8:0 9:0 10:0 11:0 12:0 13:0 14:0 15:0 16:0 17:0 18:0 19:0 20:0 21:0 22:0 23:0 24:0 25:0 26:0 27:0 28:0 29:0 30:0 31:0 32:0 33:0 34:0 35:0 36:0 37:0 38:0 39:0 40:0 41:0 42:0 43:0 44:32 45:0 46:0 47:0 48:0 
1 0.232651731965421 1:406 2:1 3:4 4:0 5:0 6:1 7:32 8:0 9:0 10:0 11:0 12:0 13:0 14:0 15:0 16:0 17:0 18:0 19:0 20:0 21:0 22:0 23:16 24:0 25:0 26:0 27:0 28:0 29:0 30:0 31:512 32:0 33:0 34:0 35:0 36:0 37:0 38:0 39:0 40:2 41:0 42:0 43:0 44:0 45:0 46:0 47:0 48:0 
1 0.2340803433693978 1:897 2:1 3:4 4:0 5:0 6:0 7:0 8:20 9:0 10:0 11:0 12:0 13:0 14:0 15:0 16:0 17:0 18:0 19:0 20:0 21:0 22:0 23:0 24:0 25:0 26:0 27:0 28:0 29:0 30:0 31:0 32:0 33:0 34:0 35:0 36:0 37:0 38:8 39:2 40:0 41:0 42:0 43:0 44:0 45:0 46:0 47:0 48:0 
1 0.1967282181211585 1:165 2:2 3:4 4:0 5:0 6:0 7:48 8:0 9:0 10:0 11:0 12:0 13:0 14:0 15:0 16:0 17:0 18:0 19:0 20:0 21:0 22:0 23:0 24:0 25:0 26:0 27:0 28:0 29:0 30:0 31:0 32:128 33:4 34:0 35:0 36:0 37:0 38:0 39:0 40:128 41:12 42:0 43:0 44:0 45:0 46:0 47:0 48:0 
0.609497287001868 0.1246690782668304 1:1038 2:1 3:256 4:0 5:2 6:0 7:0 8:0 9:0 10:0 11:0 12:0 13:0 14:0 15:16 16:4 17:0 18:0 19:0 20:0 21:0 22:0 23:0 24:0 25:0 26:0 27:1 28:4 29:0 30:0 31:0 32:0 33:0 34:0 35:0 36:0 37:0 38:0 39:0 40:0 41:0 42:0 43:0 44:0 45:0 46:0 47:0 48:0 
1 0.4760027249598526 1:679 2:1 3:256 4:0 5:2 6:0 7:0 8:0 9:0 10:0 11:0 12:0 13:0 14:0 15:32 16:0 17:0 18:0 19:0 20:0 21:0 22:0 23:0 24:0 25:0 26:0 27:2 28:0 29:0 30:0 31:0 32:0 33:0 34:0 35:0 36:0 37:0 38:0 39:0 40:0 41:0 42:0 43:0 44:0 45:0 46:0 47:0 48:0 
1 0.2339949195810014 1:17 2:1 3:256 4:0 5:2 6:0 7:0 8:0 9:0 10:0 11:0 12:0 13:0 14:0 15:16 16:4 17:0 18:64 19:0 20:0 21:0 22:0 23:0 24:0 25:0 26:0 27:1 28:4 29:0 30:128 31:0 32:0 33:0 34:0 35:0 36:0 37:0 38:0 39:0 40:0 41:0 42:0 43:0 44:0 45:0 46:0 47:0 48:0 
1 1 1:613 2:1 3:256 4:0 5:32 6:0 7:0 8:0 9:16 10:0 11:0 12:0 13:0 14:0 15:0 16:0 17:0 18:4 19:0 20:0 21:0 22:0 23:0 24:0 25:0 26:0 27:0 28:0 29:0 30:8 31:0 32:0 33:0 34:0 35:0 36:0 37:0 38:0 39:0 40:0 41:0 42:0 43:0 44:0 45:0 46:0 47:0 48:0 
1 1 1:834 2:2 3:256 4:0 5:32 6:0 7:0 8:0 9:0 10:0 11:0 12:0 13:0 14:0 15:0 16:0 17:0 18:4 19:0 20:0 21:0 22:0 23:0 24:0 25:0 26:0 27:0 28:0 29:0 30:8 31:0 32:0 33:0 34:0 35:0 36:0 37:0 38:0 39:0 40:0 41:0 42:0 43:0 44:0 45:0 46:0 47:0 48:0 
1 0.9565242487250148 1:824 2:1 3:256 4:0 5:2 6:0 7:0 8:0 9:0 10:0 11:0 12:0 13:0 14:0 15:0 16:0 17:0 18:1 19:0 20:0 21:0 22:0 23:0 24:0 25:0 26:0 27:0 28:0 29:0 30:0 31:0 32:0 33:0 34:0 35:0 36:0 37:0 38:0 39:0 40:0 41:0 42:0 43:0 44:0 45:0 46:0 47:0 48:0 
0.897039753630097 1 1:976 2:2 3:256 4:0 5:32 6:0 7:0 8:0 9:0 10:0 11:0 12:0 13:0 14:0 15:0 16:0 17:0 18:4 19:0 20:0 21:0 22:0 23:0 24:0 25:0 26:0 27:0 28:0 29:0 30:8 31:0 32:0 33:0 34:0 35:0 36:0 37:0 38:0 39:0 40:0 41:0 42:0 43:0 44:0 45:0 46:0 47:0 48:0 
1 0.09864318396851479 1:249 2:2 3:4 4:0 5:0 6:0 7:48 8:0 9:0 10:0 11:0 12:0 13:0 14:0 15:0 16:0 17:0 18:0 19:0 20:0 21:0 22:0 23:0 24:0 25:0 26:0 27:0 28:0 29:0 30:0 31:0 32:0 33:4 34:0 35:0 36:0 37:0 38:0 39:0 40:0 41:4 42:0 43:0 44:0 45:0 46:0 47:0 48:0 
1 0.2342348957791155 1:978 2:1 3:268 4:0 5:3 6:0 7:0 8:0 9:16 10:0 11:0 12:0 13:32 14:0 15:64 16:0 17:0 18:0 19:0 20:0 21:0 22:0 23:0 24:0 25:1 26:0 27:0 28:0 29:0 30:0 31:0 32:0 33:0 34:0 35:0 36:0 37:0 38:0 39:0 40:0 41:0 42:0 43:0 44:0 45:0 46:0 47:0 48:0 
0 1 1:798 2:2 3:256 4:0 5:32 6:0 7:0 8:0 9:0 10:0 11:0 12:0 13:0 14:0 15:0 16:0 17:0 18:4 19:0 20:0 21:0 22:0 23:0 24:0 25:0 26:0 27:0 28:0 29:0 30:8 31:0 32:0 33:0 34:0 35:0 36:0 37:0 38:0 39:0 40:0 41:0 42:0 43:0 44:0 45:0 46:0 47:0 48:0 
0.8907403905239565 0.01661688306779825 1:68 2:1 3:256 4:0 5:2 6:0 7:0 8:0 9:0 10:0 11:0 12:0 13:0 14:0 15:32 16:0 17:0 18:0 19:0 20:0 21:0 22:0 23:0 24:0 25:0 26:0 27:2 28:0 29:0 30:0 31:0 32:0 33:0 34:0 35:0 36:0 37:0 38:0 39:0 40:0 41:0 42:0 43:0 44:0 45:0 46:0 47:0 48:0 
1 0.2338402473153817 1:803 2:1 3:256 4:0 5:2 6:0 7:0 8:0 9:0 10:0 11:0 12:0 13:0 14:0 15:16 16:0 17:0 18:32 19:0 20:0 21:0 22:0 23:0 24:0 25:0 26:0 27:1 28:0 29:0 30:64 31:0 32:0 33:0 34:0 35:0 36:0 37:0 38:0 39:0 40:0 41:0 42:0 43:0 44:0 45:0 46:0 47:0 48:0 
1 0.08602721899762625 1:67 2:2 3:256 4:0 5:2 6:0 7:0 8:0 9:0 10:0 11:0 12:0 13:0 14:0 15:32 16:0 17:0 18:0 19:0 20:0 21:0 22:0 23:0 24:0 25:0 26:0 27:2 28:0 29:0 30:0 31:0 32:0 33:0 34:0 35:0 36:0 37:0 38:0 39:0 40:0 41:0 42:0 43:0 44:0 45:0 46:0 47:0 48:0 
1 0.2338916252391976 1:460 2:2 3:4 4:0 5:0 6:0 7:48 8:0 9:0 10:0 11:0 12:0 13:0 14:0 15:0 16:0 17:0 18:0 19:0 20:0 21:0 22:0 23:0 24:0 25:0 26:0 27:0 28:0 29:0 30:0 31:0 32:0 33:20 34:0 35:0 36:0 37:0 38:0 39:0 40:512 41:20 42:0 43:0 44:0 45:0 46:0 47:0 48:0 
1 0.1215468880612797 1:206 2:1 3:4 4:0 5:0 6:1 7:32 8:0 9:0 10:0 11:0 12:0 13:0 14:0 15:0 16:0 17:0 18:0 19:0 20:0 21:0 22:0 23:16 24:0 25:0 26:0 27:0 28:0 29:0 30:0 31:512 32:0 33:0 34:0 35:0 36:0 37:0 38:0 39:0 40:2 41:0 42:0 43:0 44:0 45:0 46:0 47:0 48:0 
1 0.1132539279622964 1:1053 2:1 3:256 4:0 5:2 6:0 7:0 8:0 9:0 10:0 11:0 12:0 13:0 14:0 15:0 16:0 17:0 18:1 19:0 20:0 21:0 22:0 23:0 24:0 25:0 26:0 27:0 28:0 29:0 30:2 31:0 32:0 33:0 34:0 35:0 36:0 37:0 38:0 39:0 40:0 41:0 42:0 43:0 44:0 45:0 46:0 47:0 48:0 
0.7427086345827589 0.4200469519288972 1:825 2:1 3:256 4:0 5:34 6:0 7:0 8:0 9:0 10:0 11:0 12:0 13:0 14:0 15:0 16:0 17:0 18:1 19:0 20:0 21:0 22:0 23:0 24:0 25:0 26:0 27:0 28:0 29:0 30:2 31:0 32:0 33:0 34:0 35:0 36:0 37:0 38:0 39:0 40:0 41:0 42:0 43:0 44:0 45:0 46:0 47:0 48:0 
1 0 1:1008 2:2 3:256 4:0 5:32 6:0 7:0 8:0 9:0 10:0 11:0 12:0 13:0 14:0 15:0 16:0 17:0 18:4 19:0 20:0 21:0 22:0 23:0 24:0 25:0 26:0 27:0 28:0 29:0 30:8 31:0 32:0 33:0 34:0 35:0 36:0 37:0 38:0 39:0 40:0 41:0 42:0 43:0 44:0 45:0 46:0 47:0 48:0 
1 1 1:1042 2:2 3:256 4:0 5:32 6:0 7:0 8:0 9:0 10:0 11:0 12:0 13:0 14:0 15:0 16:0 17:0 18:4 19:0 20:0 21:0 22:0 23:0 24:0 25:0 26:0 27:0 28:0 29:0 30:8 31:0 32:0 33:0 34:0 35:0 36:0 37:0 38:0 39:0 40:0 41:0 42:0 43:0 44:0 45:0 46:0 47:0 48:0 
1 0 1:1018 2:1 3:256 4:0 5:34 6:0 7:0 8:0 9:0 10:0 11:0 12:0 13:0 14:0 15:0 16:0 17:0 18:1 19:0 20:0 21:0 22:0 23:0 24:0 25:0 26:0 27:0 28:0 29:0 30:2 31:0 32:0 33:0 34:0 35:0 36:0 37:0 38:0 39:0 40:0 41:0 42:0 43:0 44:0 45:0 46:0 47:0 48:0 
1 0.2341486903929415 1:1011 2:5 3:512 4:0 5:0 6:0 7:1 8:0 9:0 10:0 11:0 12:0 13:0 14:0 15:0 16:0 17:0 18:0 19:0 20:0 21:0 22:0 23:8 24:0 25:0 26:0 27:0 28:0 29:0 30:0 31:256 32:0 33:0 34:0 35:0 36:0 37:0 38:0 39:0 40:0 41:0 42:0 43:0 44:0 45:0 46:0 47:0 48:0 
1 0.2340022773850312 1:130 2:1 3:4 4:0 5:0 6:1 7:32 8:0 9:0 10:0 11:0 12:0 13:0 14:0 15:0 16:0 17:0 18:0 19:0 20:0 21:0 22:0 23:16 24:0 25:0 26:0 27:0 28:0 29:0 30:0 31:512 32:0 33:0 34:0 35:0 36:0 37:0 38:0 39:0 40:2 41:0 42:0 43:0 44:0 45:0 46:0 47:0 48:0 
0 1 1:798 2:2 3:256 4:0 5:32 6:0 7:0 8:0 9:0 10:0 11:0 12:0 13:0 14:0 15:0 16:0 17:0 18:4 19:0 20:0 21:0 22:0 23:0 24:0 25:0 26:0 27:0 28:0 29:0 30:8 31:0 32:0 33:0 34:0 35:0 36:0 37:0 38:0 39:0 40:0 41:0 42:0 43:0 44:0 45:0 46:0 47:0 48:0 
1 0.1704879018681169 1:589 2:1 3:4 4:0 5:0 6:1 7:0 8:0 9:0 10:0 11:0 12:0 13:0 14:0 15:0 16:0 17:0 18:0 19:0 20:0 21:0 22:0 23:16 24:0 25:0 26:0 27:0 28:0 29:0 30:0 31:512 32:0 33:0 34:0 35:0 36:0 37:0 38:0 39:0 40:0 41:0 42:0 43:0 44:0 45:0 46:0 47:0 48:0 
1 0.2336067090893126 1:607 2:1 3:276 4:0 5:18 6:0 7:0 8:1 9:0 10:0 11:1 12:0 13:0 14:0 15:0 16:256 17:0 18:0 19:0 20:0 21:0 22:0 23:0 24:32 25:0 26:4 27:0 28:0 29:0 30:0 31:0 32:0 33:0 34:0 35:0 36:0 37:0 38:0 39:0 40:0 41:0 42:0 43:0 44:0 45:0 46:0 47:0 48:0 
1 0.1675155037096568 1:120 2:2 3:4 4:0 5:0 6:0 7:48 8:0 9:0 10:0 11:0 12:0 13:0 14:0 15:0 16:0 17:0 18:0 19:0 20:0 21:0 22:0 23:0 24:0 25:0 26:0 27:0 28:0 29:0 30:0 31:0 32:0 33:4 34:0 35:0 36:0 37:0 38:0 39:0 40:0 41:4 42:0 43:0 44:0 45:0 46:0 47:0 48:0 
1 0.2340000049803309 1:2 2:1 3:1344 4:0 5:266 6:0 7:0 8:0 9:0 10:0 11:0 12:0 13:0 14:0 15:16 16:0 17:0 18:0 19:0 20:0 21:0 22:0 23:0 24:0 25:0 26:0 27:1 28:0 29:0 30:0 31:0 32:0 33:0 34:0 35:0 36:0 37:8 38:0 39:0 40:0 41:0 42:0 43:4 44:32 45:0 46:0 47:0 48:0 
1 1 1:763 2:1 3:256 4:0 5:34 6:0 7:0 8:0 9:0 10:0 11:0 12:0 13:0 14:0 15:0 16:0 17:2 18:4 19:0 20:0 21:0 22:0 23:0 24:0 25:0 26:0 27:0 28:0 29:8 30:8 31:0 32:0 33:0 34:0 35:0 36:0 37:0 38:0 39:0 40:0 41:0 42:0 43:0 44:0 45:0 46:0 47:0 48:0 
1 0.2338402473068055 1:755 2:1 3:256 4:0 5:2 6:0 7:0 8:0 9:0 10:0 11:0 12:0 13:0 14:32 15:0 16:0 17:0 18:0 19:0 20:0 21:0 22:0 23:0 24:0 25:0 26:2 27:0 28:0 29:0 30:0 31:0 32:0 33:0 34:0 35:0 36:0 37:0 38:0 39:0 40:0 41:0 42:0 43:0 44:0 45:0 46:0 47:0 48:0 
1 0.223082515707879 1:957 2:4 3:4 4:0 5:0 6:0 7:0 8:0 9:16 10:0 11:0 12:0 13:0 14:0 15:0 16:0 17:0 18:0 19:0 20:0 21:0 22:0 23:0 24:0 25:0 26:0 27:0 28:0 29:0 30:0 31:0 32:0 33:0 34:0 35:0 36:0 37:0 38:0 39:0 40:0 41:0 42:0 43:0 44:0 45:0 46:5 47:0 48:0 
1 0.2339621855516708 1:344 2:1 3:4 4:0 5:0 6:1 7:0 8:0 9:0 10:0 11:0 12:0 13:0 14:0 15:0 16:0 17:0 18:0 19:0 20:0 21:0 22:0 23:0 24:0 25:0 26:0 27:0 28:0 29:0 30:0 31:512 32:0 33:0 34:0 35:0 36:0 37:0 38:0 39:0 40:0 41:0 42:0 43:0 44:0 45:0 46:0 47:0 48:0 
1 0.2331604418356661 1:676 2:1 3:260 4:0 5:2 6:1 7:0 8:0 9:0 10:0 11:0 12:0 13:0 14:0 15:32 16:0 17:0 18:0 19:0 20:0 21:0 22:0 23:16 24:0 25:0 26:0 27:2 28:0 29:0 30:0 31:0 32:0 33:0 34:0 35:0 36:0 37:0 38:0 39:0 40:0 41:0 42:0 43:0 44:0 45:0 46:0 47:0 48:0 
1 0.2341976484654906 1:102 2:2 3:4 4:0 5:0 6:0 7:48 8:0 9:0 10:0 11:0 12:0 13:0 14:0 15:0 16:0 17:0 18:0 19:0 20:0 21:0 22:0 23:0 24:0 25:0 26:0 27:0 28:0 29:0 30:0 31:0 32:256 33:45 34:0 35:0 36:0 37:0 38:0 39:0 40:256 41:5 42:0 43:0 44:0 45:0 46:0 47:0 48:0 
1 0.2312979448470147 1:195 2:2 3:4 4:0 5:0 6:0 7:48 8:0 9:0 10:0 11:0 12:0 13:0 14:0 15:0 16:0 17:0 18:0 19:0 20:0 21:0 22:0 23:0 24:0 25:0 26:0 27:0 28:0 29:0 30:0 31:0 32:2 33:0 34:0 35:0 36:0 37:0 38:0 39:0 40:2 41:0 42:0 43:0 44:0 45:0 46:0 47:0 48:0 
0 1 1:1086 2:2 3:256 4:0 5:32 6:0 7:0 8:0 9:0 10:0 11:0 12:0 13:0 14:0 15:0 16:0 17:0 18:4 19:0 20:0 21:0 22:0 23:0 24:0 25:0 26:0 27:0 28:0 29:0 30:8 31:0 32:0 33:0 34:0 35:0 36:0 37:0 38:0 39:0 40:0 41:0 42:0 43:0 44:0 45:0 46:0 47:0 48:0 
0.6280801324728668 0.04564575114345214 1:943 2:1 3:256 4:0 5:2 6:0 7:0 8:0 9:0 10:0 11:0 12:0 13:0 14:0 15:16 16:0 17:0 18:0 19:0 20:0 21:0 22:0 23:0 24:0 25:0 26:0 27:0 28:0 29:0 30:0 31:0 32:0 33:0 34:0 35:0 36:0 37:0 38:0 39:0 40:0 41:0 42:0 43:0 44:0 45:0 46:0 47:0 48:0 
1 0.2338574244940722 1:601 2:1 3:320 4:0 5:10 6:0 7:0 8:0 9:0 10:0 11:0 12:0 13:0 14:0 15:0 16:256 17:0 18:0 19:0 20:0 21:0 22:0 23:0 24:0 25:0 26:0 27:0 28:0 29:0 30:0 31:0 32:0 33:0 34:0 35:0 36:0 37:8 38:0 39:0 40:0 41:0 42:0 43:0 44:0 45:0 46:0 47:0 48:0 
1 0 1:803 2:1 3:256 4:0 5:2 6:0 7:0 8:0 9:0 10:0 11:0 12:0 13:0 14:0 15:16 16:0 17:0 18:0 19:0 20:0 21:0 22:0 23:0 24:0 25:0 26:0 27:1 28:0 29:0 30:0 31:0 32:0 33:0 34:0 35:0 36:0 37:0 38:0 39:0 40:0 41:0 42:0 43:0 44:0 45:0 46:0 47:0 48:0 
0.9986507548236943 0.1867358988527664 1:1088 2:1 3:320 4:0 5:10 6:0 7:0 8:0 9:0 10:0 11:0 12:0 13:0 14:0 15:0 16:256 17:0 18:0 19:0 20:0 21:0 22:0 23:0 24:0 25:0 26:0 27:0 28:0 29:0 30:0 31:0 32:0 33:0 34:0 35:0 36:0 37:8 38:0 39:0 40:0 41:0 42:0 43:0 44:0 45:0 46:0 47:0 48:0 
1 0.2338508700954553 1:1121 2:1 3:4 4:0 5:0 6:1 7:0 8:0 9:0 10:0 11:0 12:0 13:0 14:0 15:0 16:0 17:0 18:0 19:0 20:0 21:0 22:0 23:16 24:0 25:0 26:0 27:0 28:0 29:0 30:0 31:512 32:0 33:0 34:0 35:0 36:0 37:0 38:0 39:0 40:0 41:0 42:0 43:0 44:0 45:0 46:0 47:0 48:0 
1 0.1374162670865895 1:724 2:1 3:256 4:0 5:2 6:0 7:4 8:0 9:0 10:0 11:0 12:0 13:0 14:0 15:16 16:0 17:0 18:0 19:0 20:0 21:0 22:0 23:0 24:0 25:0 26:0 27:1 28:0 29:0 30:0 31:0 32:0 33:0 34:0 35:0 36:0 37:0 38:1 39:0 40:0 41:0 42:0 43:0 44:0 45:0 46:0 47:0 48:0 
1 0.2333950605381191 1:1098 2:2 3:256 4:0 5:2 6:0 7:0 8:0 9:0 10:0 11:0 12:0 13:0 14:0 15:0 16:0 17:0 18:0 19:0 20:0 21:0 22:0 23:0 24:0 25:0 26:0 27:0 28:0 29:0 30:128 31:0 32:0 33:0 34:0 35:0 36:0 37:0 38:0 39:0 40:0 41:0 42:0 43:0 44:0 45:0 46:0 47:0 48:0 
1 0 1:1067 2:1 3:256 4:0 5:2 6:0 7:0 8:0 9:0 10:0 11:0 12:0 13:0 14:0 15:16 16:0 17:0 18:0 19:0 20:0 21:0 22:0 23:0 24:0 25:0 26:0 27:1 28:0 29:0 30:0 31:0 32:0 33:0 34:0 35:0 36:0 37:0 38:0 39:0 40:0 41:0 42:0 43:0 44:0 45:0 46:0 47:0 48:0 
1 0.01821066266550849 1:318 2:2 3:4 4:0 5:0 6:0 7:48 8:0 9:0 10:0 11:0 12:0 13:0 14:0 15:0 16:0 17:0 18:0 19:0 20:0 21:0 22:0 23:0 24:0 25:0 26:0 27:0 28:0 29:0 30:0 31:0 32:0 33:4 34:0 35:0 36:0 37:0 38:0 39:0 40:0 41:4 42:0 43:0 44:0 45:0 46:0 47:0 48:0 
0.9990559841549036 0.2256869675337051 1:839 2:1 3:256 4:0 5:2 6:0 7:0 8:0 9:0 10:0 11:0 12:0 13:0 14:0 15:0 16:0 17:0 18:0 19:0 20:0 21:0 22:0 23:0 24:0 25:0 26:0 27:1 28:0 29:0 30:0 31:0 32:0 33:0 34:0 35:0 36:0 37:0 38:0 39:0 40:0 41:0 42:0 43:0 44:0 45:0 46:0 47:0 48:0 
1 0.1850757028044371 1:856 2:1 3:320 4:0 5:10 6:0 7:0 8:0 9:0 10:0 11:0 12:0 13:0 14:0 15:0 16:256 17:0 18:0 19:0 20:0 21:0 22:0 23:0 24:0 25:0 26:0 27:512 28:0 29:0 30:0 31:0 32:0 33:0 34:0 35:0 36:0 37:8 38:0 39:0 40:0 41:0 42:0 43:0 44:32 45:0 46:0 47:0 48:0 
1 0.08728690545390726 1:300 2:2 3:4 4:0 5:0 6:0 7:48 8:0 9:0 10:0 11:0 12:0 13:0 14:0 15:0 16:0 17:0 18:0 19:0 20:0 21:0 22:0 23:0 24:0 25:0 26:0 27:0 28:0 29:0 30:0 31:0 32:128 33:4 34:0 35:0 36:0 37:0 38:0 39:0 40:128 41:12 42:0 43:0 44:0 45:0 46:0 47:0 48:0 
1 0.2299530124237264 1:120 2:2 3:4 4:0 5:0 6:0 7:48 8:0 9:0 10:0 11:0 12:0 13:0 14:0 15:0 16:0 17:0 18:0 19:0 20:0 21:0 22:0 23:0 24:0 25:0 26:0 27:0 28:0 29:0 30:0 31:0 32:0 33:20 34:0 35:0 36:0 37:0 38:0 39:0 40:0 41:20 42:0 43:0 44:0 45:0 46:0 47:0 48:0 
1 0.2338083456216854 1:816 2:1 3:400 4:0 5:18 6:8 7:0 8:0 9:0 10:0 11:0 12:0 13:0 14:128 15:0 16:0 17:0 18:0 19:0 20:0 21:0 22:0 23:0 24:0 25:0 26:8 27:0 28:0 29:0 30:0 31:0 32:8 33:0 34:0 35:0 36:0 37:0 38:0 39:0 40:64 41:0 42:0 43:0 44:0 45:0 46:0 47:0 48:0 
1 0.2339628332005911 1:797 2:1 3:256 4:0 5:2 6:0 7:0 8:0 9:0 10:0 11:0 12:0 13:0 14:0 15:0 16:256 17:0 18:0 19:0 20:0 21:0 22:0 23:0 24:0 25:0 26:0 27:1 28:0 29:0 30:0 31:0 32:0 33:0 34:0 35:0 36:0 37:0 38:0 39:0 40:0 41:0 42:0 43:0 44:0 45:0 46:0 47:0 48:0 
1 0.1075632890015128 1:1097 2:1 3:256 4:0 5:2 6:0 7:0 8:0 9:0 10:0 11:0 12:0 13:0 14:0 15:0 16:256 17:0 18:0 19:0 20:0 21:0 22:0 23:0 24:0 25:0 26:0 27:0 28:0 29:0 30:0 31:0 32:0 33:0 34:0 35:0 36:0 37:0 38:0 39:0 40:0 41:0 42:0 43:0 44:0 45:0 46:0 47:0 48:0 
1 0.2342784725191117 1:1033 2:1 3:256 4:0 5:2 6:0 7:0 8:0 9:0 10:0 11:0 12:0 13:0 14:0 15:16 16:4 17:0 18:64 19:0 20:0 21:0 22:0 23:0 24:0 25:0 26:0 27:1 28:4 29:0 30:128 31:0 32:0 33:0 34:0 35:0 36:0 37:0 38:0 39:0 40:0 41:0 42:0 43:0 44:0 45:0 46:0 47:0 48:0 
1 0 1:1031 2:1 3:256 4:0 5:2 6:0 7:0 8:0 9:0 10:0 11:0 12:0 13:0 14:0 15:16 16:0 17:0 18:0 19:0 20:0 21:0 22:0 23:0 24:0 25:0 26:0 27:1 28:0 29:0 30:0 31:0 32:0 33:0 34:0 35:0 36:0 37:0 38:0 39:0 40:0 41:0 42:0 43:0 44:0 45:0 46:0 47:0 48:0 
1 0 1:696 2:1 3:256 4:0 5:2 6:0 7:0 8:0 9:0 10:0 11:0 12:0 13:0 14:0 15:16 16:0 17:0 18:0 19:0 20:0 21:0 22:0 23:0 24:0 25:0 26:0 27:1 28:0 29:0 30:0 31:0 32:0 33:0 34:0 35:0 36:0 37:0 38:0 39:0 40:0 41:0 42:0 43:0 44:0 45:0 46:0 47:0 48:0 
1 0.2339320398355715 1:95 2:2 3:4 4:0 5:0 6:0 7:48 8:0 9:0 10:0 11:0 12:0 13:0 14:0 15:0 16:0 17:0 18:0 19:0 20:0 21:0 22:0 23:0 24:0 25:0 26:0 27:0 28:0 29:0 30:0 31:0 32:512 33:0 34:0 35:0 36:0 37:0 38:0 39:0 40:512 41:0 42:0 43:0 44:0 45:0 46:0 47:0 48:0 
1 0 1:16 2:1 3:256 4:0 5:2 6:0 7:0 8:0 9:0 10:0 11:0 12:0 13:0 14:0 15:16 16:0 17:0 18:0 19:0 20:0 21:0 22:0 23:0 24:0 25:0 26:0 27:1 28:0 29:0 30:0 31:0 32:0 33:0 34:0 35:0 36:0 37:0 38:0 39:0 40:0 41:0 42:0 43:0 44:0 45:0 46:0 47:0 48:0 
0.291067521284072 0 1:418 2:2 3:4 4:0 5:0 6:0 7:48 8:0 9:0 10:0 11:0 12:0 13:0 14:0 15:0 16:0 17:0 18:0 19:0 20:0 21:0 22:0 23:0 24:0 25:0 26:0 27:0 28:0 29:0 30:0 31:0 32:2 33:0 34:0 35:0 36:0 37:0 38:0 39:0 40:2 41:0 42:0 43:0 44:0 45:0 46:0 47:0 48:0 
1 1 1:1107 2:1 3:256 4:0 5:34 6:0 7:0 8:0 9:0 10:0 11:0 12:0 13:0 14:0 15:0 16:0 17:2 18:4 19:0 20:0 21:0 22:0 23:0 24:0 25:0 26:0 27:0 28:0 29:8 30:8 31:0 32:0 33:0 34:0 35:0 36:0 37:0 38:0 39:0 40:0 41:0 42:0 43:0 44:0 45:0 46:0 47:0 48:0 
1 1 1:834 2:2 3:256 4:0 5:32 6:0 7:0 8:0 9:0 10:0 11:0 12:0 13:0 14:0 15:0 16:0 17:2 18:4 19:0 20:0 21:0 22:0 23:0 24:0 25:0 26:0 27:0 28:0 29:8 30:8 31:0 32:0 33:0 34:0 35:0 36:0 37:0 38:0 39:0 40:0 41:0 42:0 43:0 44:0 45:0 46:0 47:0 48:0 
1 0.2340374731623618 1:79 2:1 3:12 4:0 5:1 6:1 7:0 8:0 9:16 10:0 11:0 12:0 13:512 14:0 15:0 16:0 17:0 18:0 19:0 20:0 21:0 22:0 23:16 24:0 25:16 26:0 27:0 28:0 29:0 30:0 31:512 32:0 33:0 34:0 35:0 36:0 37:0 38:0 39:0 40:0 41:0 42:0 43:0 44:0 45:0 46:0 47:0 48:0 
0.8449448848734574 1 1:976 2:2 3:256 4:0 5:32 6:0 7:0 8:0 9:0 10:0 11:0 12:0 13:0 14:0 15:0 16:0 17:0 18:5 19:0 20:0 21:0 22:0 23:0 24:0 25:0 26:0 27:0 28:0 29:0 30:8 31:0 32:0 33:0 34:0 35:0 36:0 37:0 38:0 39:0 40:0 41:0 42:0 43:0 44:0 45:0 46:0 47:0 48:0 
1 0.2334180296132697 1:406 2:2 3:4 4:0 5:0 6:0 7:48 8:0 9:0 10:0 11:0 12:0 13:0 14:0 15:0 16:0 17:0 18:0 19:0 20:0 21:0 22:0 23:0 24:0 25:0 26:0 27:0 28:0 29:0 30:0 31:0 32:768 33:20 34:0 35:0 36:0 37:0 38:0 39:0 40:768 41:20 42:0 43:0 44:0 45:0 46:0 47:0 48:0 
1 0.1524527112324159 1:139 2:2 3:4 4:0 5:0 6:0 7:48 8:0 9:0 10:0 11:0 12:0 13:0 14:0 15:0 16:0 17:0 18:0 19:0 20:0 21:0 22:0 23:0 24:0 25:0 26:0 27:0 28:0 29:0 30:0 31:0 32:128 33:4 34:0 35:0 36:0 37:0 38:0 39:0 40:128 41:4 42:0 43:0 44:0 45:0 46:0 47:0 48:0 
1 0.2324574965945875 1:73 2:1 3:776 4:0 5:3 6:256 7:0 8:0 9:0 10:0 11:0 12:0 13:32 14:0 15:32 16:0 17:0 18:0 19:0 20:0 21:0 22:128 23:0 24:0 25:1 26:0 27:2 28:0 29:0 30:0 31:0 32:0 33:0 34:0 35:0 36:0 37:0 38:0 39:0 40:0 41:0 42:0 43:0 44:0 45:0 46:0 47:0 48:0 
1 0.2338449885767654 1:831 2:1 3:256 4:0 5:2 6:0 7:0 8:0 9:0 10:0 11:0 12:0 13:0 14:0 15:0 16:0 17:0 18:128 19:0 20:0 21:0 22:0 23:0 24:0 25:0 26:0 27:0 28:0 29:0 30:0 31:0 32:0 33:0 34:0 35:0 36:0 37:0 38:0 39:0 40:0 41:0 42:0 43:0 44:0 45:0 46:0 47:0 48:0 
1 0.3036399723459303 1:1099 2:2 3:256 4:0 5:2 6:0 7:0 8:0 9:0 10:0 11:0 12:0 13:0 14:0 15:0 16:0 17:0 18:2 19:0 20:0 21:0 22:0 23:0 24:0 25:0 26:0 27:0 28:0 29:0 30:4 31:0 32:0 33:0 34:0 35:0 36:0 37:0 38:0 39:0 40:0 41:0 42:0 43:0 44:0 45:0 46:0 47:0 48:0 
1 0.2341728131365932 1:1025 2:1 3:256 4:0 5:2 6:0 7:0 8:0 9:0 10:0 11:0 12:0 13:0 14:0 15:0 16:64 17:16 18:0 19:0 20:0 21:0 22:0 23:0 24:0 25:0 26:0 27:0 28:256 29:64 30:0 31:0 32:0 33:0 34:0 35:0 36:0 37:0 38:0 39:0 40:0 41:0 42:0 43:0 44:0 45:0 46:0 47:0 48:0 
0.2055711883735133 1 1:613 2:1 3:256 4:0 5:34 6:0 7:0 8:0 9:16 10:0 11:0 12:0 13:0 14:0 15:0 16:0 17:2 18:4 19:0 20:0 21:0 22:0 23:0 24:0 25:0 26:0 27:0 28:0 29:8 30:8 31:0 32:0 33:0 34:0 35:0 36:0 37:0 38:0 39:0 40:0 41:0 42:0 43:0 44:0 45:0 46:0 47:0 48:0 
1 0.2340468212305669 1:13 2:1 3:64 4:0 5:8 6:0 7:0 8:0 9:0 10:0 11:0 12:0 13:1 14:0 15:0 16:0 17:0 18:0 19:0 20:0 21:256 22:0 23:0 24:0 25:0 26:0 27:0 28:0 29:0 30:0 31:0 32:0 33:0 34:0 35:0 36:0 37:8 38:0 39:0 40:0 41:0 42:0 43:0 44:0 45:0 46:0 47:0 48:0 
0 0.1147555086556294 1:989 2:1 3:256 4:0 5:2 6:0 7:0 8:0 9:0 10:0 11:0 12:0 13:0 14:0 15:16 16:0 17:0 18:0 19:0 20:0 21:0 22:0 23:0 24:0 25:0 26:0 27:1 28:0 29:0 30:0 31:0 32:0 33:0 34:0 35:0 36:0 37:0 38:0 39:0 40:0 41:0 42:0 43:0 44:0 45:0 46:0 47:0 48:0 
1 0.2338603649314053 1:895 2:1 3:4 4:0 5:0 6:0 7:0 8:60 9:0 10:0 11:0 12:0 13:0 14:0 15:0 16:0 17:0 18:0 19:0 20:0 21:0 22:0 23:0 24:0 25:0 26:0 27:0 28:0 29:0 30:0 31:0 32:0 33:0 34:0 35:0 36:0 37:0 38:8 39:10 40:0 41:0 42:0 43:0 44:0 45:0 46:256 47:96 48:0 
1 0.1152753319075451 1:737 2:1 3:256 4:0 5:2 6:0 7:0 8:0 9:0 10:0 11:0 12:0 13:0 14:4 15:0 16:0 17:0 18:0 19:0 20:0 21:0 22:0 23:0 24:0 25:128 26:0 27:0 28:0 29:0 30:0 31:0 32:0 33:0 34:0 35:0 36:0 37:0 38:0 39:0 40:0 41:0 42:0 43:0 44:0 45:0 46:0 47:0 48:0 
1 0.2335014627601351 1:893 2:1 3:4 4:0 5:0 6:0 7:0 8:60 9:0 10:0 11:0 12:0 13:0 14:0 15:0 16:0 17:0 18:0 19:0 20:0 21:0 22:49 23:0 24:0 25:0 26:0 27:0 28:0 29:0 30:0 31:0 32:0 33:0 34:0 35:0 36:0 37:0 38:8 39:11 40:0 41:0 42:0 43:0 44:0 45:0 46:256 47:352 48:0 
1 0.2338073569375326 1:388 2:1 3:4 4:0 5:0 6:1 7:32 8:0 9:0 10:0 11:0 12:0 13:0 14:0 15:0 16:0 17:0 18:0 19:32 20:0 21:0 22:0 23:16 24:0 25:0 26:0 27:0 28:0 29:0 30:0 31:512 32:0 33:0 34:0 35:0 36:0 37:0 38:0 39:0 40:130 41:4 42:0 43:0 44:0 45:384 46:0 47:0 48:0 
1 0.2334899508582319 1:1056 2:1 3:1344 4:0 5:266 6:0 7:0 8:0 9:0 10:0 11:0 12:0 13:0 14:0 15:0 16:256 17:0 18:0 19:0 20:0 21:0 22:0 23:0 24:0 25:0 26:0 27:0 28:0 29:0 30:0 31:0 32:0 33:0 34:0 35:2 36:0 37:8 38:0 39:0 40:0 41:0 42:0 43:2 44:32 45:0 46:0 47:0 48:0 
0 1 1:1086 2:2 3:256 4:0 5:32 6:0 7:0 8:0 9:0 10:0 11:0 12:0 13:0 14:0 15:0 16:0 17:0 18:4 19:0 20:0 21:0 22:0 23:0 24:0 25:0 26:0 27:0 28:0 29:0 30:8 31:0 32:0 33:0 34:0 35:0 36:0 37:0 38:0 39:0 40:0 41:0 42:0 43:0 44:0 45:0 46:0 47:0 48:0 
1 0.2339304496575798 1:102 2:2 3:4 4:0 5:0 6:0 7:48 8:0 9:0 10:0 11:0 12:0 13:0 14:0 15:0 16:0 17:0 18:0 19:0 20:0 21:0 22:0 23:0 24:0 25:0 26:0 27:0 28:0 29:0 30:0 31:0 32:256 33:61 34:0 35:0 36:0 37:0 38:0 39:0 40:256 41:21 42:0 43:0 44:0 45:0 46:0 47:0 48:0 
0.5013222956126989 0 1:909 2:1 3:320 4:0 5:10 6:0 7:0 8:0 9:0 10:0 11:0 12:0 13:0 14:0 15:0 16:256 17:0 18:0 19:0 20:0 21:0 22:0 23:0 24:0 25:0 26:0 27:0 28:0 29:0 30:0 31:0 32:0 33:0 34:0 35:0 36:0 37:8 38:0 39:0 40:0 41:0 42:0 43:0 44:0 45:0 46:0 47:0 48:0 
1 0.2338772511664395 1:352 2:1 3:260 4:0 5:2 6:0 7:64 8:0 9:0 10:0 11:0 12:512 13:0 14:0 15:0 16:0 17:0 18:0 19:0 20:0 21:128 22:0 23:0 24:0 25:0 26:0 27:0 28:2 29:0 30:0 31:0 32:0 33:128 34:0 35:0 36:0 37:0 38:0 39:0 40:0 41:0 42:0 43:0 44:0 45:0 46:0 47:0 48:0 
0.8205560494807708 0.1267339071398161 1:444 2:1 3:4 4:0 5:0 6:1 7:48 8:0 9:0 10:0 11:0 12:0 13:0 14:0 15:0 16:0 17:0 18:0 19:0 20:0 21:0 22:0 23:16 24:0 25:0 26:0 27:0 28:0 29:0 30:0 31:512 32:128 33:4 34:0 35:0 36:0 37:0 38:0 39:0 40:130 41:4 42:0 43:0 44:0 45:0 46:0 47:0 48:0 
1 0.1264776937514691 1:662 2:1 3:256 4:0 5:2 6:0 7:0 8:0 9:0 10:0 11:0 12:0 13:0 14:0 15:16 16:0 17:0 18:0 19:0 20:0 21:0 22:0 23:0 24:0 25:0 26:0 27:1 28:0 29:0 30:0 31:0 32:0 33:0 34:0 35:0 36:0 37:0 38:0 39:0 40:0 41:0 42:0 43:0 44:0 45:0 46:0 47:0 48:0 
1 1 1:653 2:2 3:256 4:0 5:32 6:0 7:0 8:0 9:0 10:0 11:0 12:0 13:0 14:0 15:0 16:0 17:0 18:5 19:0 20:0 21:0 22:0 23:0 24:0 25:0 26:0 27:0 28:0 29:0 30:10 31:0 32:0 33:0 34:0 35:0 36:0 37:0 38:0 39:0 40:0 41:0 42:0 43:0 44:0 45:0 46:0 47:0 48:0 
1 0.04462653562681734 1:135 2:2 3:4 4:0 5:0 6:0 7:48 8:0 9:0 10:0 11:0 12:0 13:0 14:0 15:0 16:0 17:0 18:0 19:0 20:0 21:0 22:0 23:0 24:0 25:0 26:0 27:0 28:0 29:0 30:0 31:0 32:0 33:4 34:0 35:0 36:0 37:0 38:0 39:0 40:0 41:4 42:0 43:0 44:0 45:0 46:0 47:0 48:0 
1 0.2337981276334852 1:979 2:1 3:258 4:128 5:2 6:0 7:0 8:0 9:0 10:0 11:0 12:0 13:0 14:0 15:0 16:0 17:8 18:0 19:0 20:0 21:0 22:0 23:0 24:0 25:0 26:0 27:0 28:0 29:32 30:0 31:0 32:0 33:0 34:0 35:0 36:0 37:0 38:0 39:0 40:0 41:0 42:0 43:0 44:0 45:0 46:0 47:0 48:0 
1 0.2339747672602735 1:481 2:2 3:4 4:0 5:0 6:0 7:48 8:0 9:0 10:0 11:0 12:0 13:0 14:0 15:0 16:0 17:0 18:0 19:0 20:0 21:0 22:0 23:0 24:0 25:0 26:0 27:0 28:0 29:0 30:0 31:0 32:256 33:5 34:0 35:0 36:0 37:0 38:0 39:0 40:256 41:21 42:0 43:0 44:0 45:0 46:0 47:0 48:0 
0.3594245148549485 1 1:821 2:1 3:260 4:0 5:34 6:0 7:0 8:0 9:16 10:0 11:0 12:0 13:0 14:0 15:0 16:0 17:2 18:5 19:0 20:0 21:0 22:0 23:0 24:0 25:0 26:0 27:0 28:0 29:8 30:10 31:0 32:0 33:0 34:0 35:0 36:0 37:0 38:0 39:0 40:0 41:0 42:0 43:0 44:0 45:0 46:0 47:0 48:0 
1 0.04992759002565607 1:288 2:2 3:4 4:0 5:0 6:0 7:48 8:0 9:0 10:0 11:0 12:0 13:0 14:0 15:0 16:0 17:0 18:0 19:0 20:0 21:0 22:0 23:0 24:0 25:0 26:0 27:0 28:0 29:0 30:0 31:0 32:0 33:4 34:0 35:0 36:0 37:0 38:0 39:0 40:0 41:4 42:0 43:0 44:0 45:0 46:0 47:0 48:0 
1 0 1:758 2:1 3:256 4:0 5:2 6:0 7:0 8:0 9:0 10:0 11:0 12:0 13:0 14:0 15:16 16:0 17:0 18:0 19:0 20:0 21:0 22:0 23:0 24:0 25:0 26:0 27:0 28:0 29:0 30:0 31:0 32:0 33:0 34:0 35:0 36:0 37:0 38:0 39:0 40:0 41:0 42:0 43:0 44:0 45:0 46:0 47:0 48:0 
0.7507179251338223 1 1:798 2:2 3:256 4:0 5:32 6:0 7:0 8:0 9:0 10:0 11:0 12:0 13:0 14:0 15:0 16:0 17:0 18:4 19:0 20:0 21:0 22:0 23:0 24:0 25:0 26:0 27:0 28:0 29:0 30:8 31:0 32:0 33:0 34:0 35:0 36:0 37:0 38:0 39:0 40:0 41:0 42:0 43:0 44:0 45:0 46:0 47:0 48:0 
1 0.2338706266956304 1:131 2:2 3:4 4:0 5:0 6:0 7:16 8:0 9:0 10:0 11:0 12:0 13:0 14:0 15:0 16:0 17:0 18:0 19:0 20:0 21:0 22:0 23:0 24:0 25:0 26:0 27:0 28:0 29:0 30:0 31:0 32:128 33:4 34:0 35:0 36:0 37:0 38:0 39:0 40:0 41:0 42:0 43:0 44:0 45:0 46:0 47:0 48:0 
0.6698555686429424 0 1:1052 2:2 3:256 4:0 5:32 6:0 7:0 8:0 9:0 10:0 11:0 12:0 13:0 14:0 15:0 16:0 17:0 18:5 19:0 20:0 21:0 22:0 23:0 24:0 25:0 26:0 27:0 28:0 29:0 30:8 31:0 32:0 33:0 34:0 35:0 36:0 37:0 38:0 39:0 40:0 41:0 42:0 43:0 44:0 45:0 46:0 47:0 48:0 
1 0.2340209660886631 1:208 2:2 3:4 4:0 5:0 6:0 7:48 8:0 9:0 10:0 11:0 12:0 13:0 14:0 15:0 16:0 17:0 18:0 19:0 20:0 21:0 22:0 23:0 24:0 25:0 26:0 27:0 28:0 29:0 30:0 31:0 32:0 33:44 34:0 35:0 36:0 37:0 38:0 39:0 40:0 41:44 42:0 43:0 44:0 45:0 46:0 47:0 48:0 
1 0.1608101633952887 1:983 2:1 3:256 4:0 5:2 6:0 7:0 8:0 9:0 10:0 11:0 12:0 13:0 14:0 15:0 16:0 17:0 18:1 19:0 20:0 21:0 22:0 23:0 24:0 25:0 26:0 27:0 28:0 29:0 30:0 31:0 32:0 33:0 34:0 35:0 36:0 37:0 38:0 39:0 40:0 41:0 42:0 43:0 44:0 45:0 46:0 47:0 48:0 
1 0.2337944933848369 1:821 2:1 3:256 4:0 5:34 6:0 7:0 8:0 9:0 10:0 11:0 12:0 13:0 14:0 15:0 16:0 17:16 18:4 19:0 20:0 21:0 22:0 23:0 24:0 25:0 26:0 27:0 28:0 29:64 30:8 31:0 32:0 33:0 34:0 35:0 36:0 37:0 38:0 39:0 40:0 41:0 42:0 43:0 44:0 45:0 46:0 47:0 48:0 
1 0.2228237901641998 1:1026 2:2 3:272 4:0 5:18 6:0 7:0 8:0 9:0 10:0 11:0 12:0 13:0 14:0 15:0 16:256 17:0 18:0 19:0 20:0 21:0 22:0 23:0 24:0 25:0 26:0 27:1 28:0 29:0 30:0 31:0 32:0 33:0 34:0 35:0 36:0 37:0 38:0 39:0 40:0 41:0 42:0 43:0 44:0 45:0 46:0 47:0 48:0 
1 0.2368292287689078 1:883 2:1 3:256 4:0 5:2 6:0 7:0 8:0 9:0 10:0 11:0 12:0 13:0 14:0 15:16 16:0 17:0 18:0 19:0 20:0 21:0 22:0 23:0 24:0 25:0 26:0 27:0 28:0 29:0 30:0 31:0 32:0 33:0 34:0 35:0 36:0 37:0 38:0 39:0 40:0 41:0 42:0 43:0 44:0 45:0 46:0 47:0 48:0 
1 0.2342684744381154 1:175 2:1 3:4 4:0 5:0 6:1 7:32 8:0 9:0 10:0 11:0 12:0 13:0 14:0 15:0 16:0 17:0 18:0 19:0 20:0 21:0 22:0 23:16 24:0 25:0 26:0 27:0 28:0 29:0 30:0 31:512 32:0 33:0 34:0 35:0 36:0 37:0 38:0 39:0 40:2 41:4 42:0 43:0 44:0 45:0 46:0 47:0 48:0 
1 0.2338181189580922 1:536 2:1 3:260 4:0 5:2 6:0 7:0 8:0 9:16 10:0 11:0 12:0 13:0 14:0 15:2 16:0 17:0 18:0 19:0 20:0 21:0 22:0 23:0 24:0 25:0 26:128 27:0 28:0 29:0 30:0 31:0 32:0 33:0 34:0 35:0 36:0 37:0 38:0 39:0 40:0 41:0 42:0 43:0 44:0 45:0 46:0 47:0 48:0 
1 0 1:1084 2:1 3:256 4:0 5:2 6:0 7:0 8:0 9:0 10:0 11:0 12:0 13:0 14:0 15:16 16:0 17:0 18:0 19:0 20:0 21:0 22:0 23:0 24:0 25:0 26:0 27:1 28:0 29:0 30:0 31:0 32:0 33:0 34:0 35:0 36:0 37:0 38:0 39:0 40:0 41:0 42:0 43:0 44:0 45:0 46:0 47:0 48:0 
1 0.234188366797626 1:714 2:1 3:320 4:0 5:10 6:0 7:0 8:0 9:0 10:0 11:0 12:0 13:0 14:0 15:16 16:256 17:0 18:0 19:0 20:0 21:0 22:0 23:0 24:0 25:0 26:0 27:1 28:0 29:0 30:0 31:0 32:0 33:0 34:0 35:0 36:0 37:8 38:0 39:0 40:0 41:0 42:0 43:0 44:32 45:0 46:0 47:0 48:0 
1 0.2303634489719863 1:758 2:1 3:256 4:0 5:2 6:0 7:0 8:0 9:0 10:0 11:0 12:0 13:0 14:0 15:0 16:256 17:0 18:0 19:0 20:0 21:0 22:0 23:0 24:0 25:0 26:0 27:1 28:0 29:0 30:0 31:0 32:0 33:0 34:0 35:0 36:0 37:0 38:0 39:0 40:0 41:0 42:0 43:0 44:0 45:0 46:0 47:0 48:0 
0.7847518845723824 0.1219381344657072 1:330 2:1 3:4 4:0 5:0 6:1 7:32 8:0 9:0 10:0 11:0 12:0 13:0 14:0 15:0 16:0 17:0 18:0 19:0 20:0 21:0 22:0 23:16 24:0 25:0 26:0 27:0 28:0 29:0 30:0 31:512 32:0 33:0 34:0 35:0 36:0 37:0 38:0 39:0 40:2 41:0 42:0 43:0 44:0 45:0 46:0 47:0 48:0 
0.9770159815129792 0 1:1067 2:1 3:256 4:0 5:2 6:0 7:0 8:0 9:0 10:0 11:0 12:0 13:0 14:0 15:0 16:0 17:0 18:0 19:0 20:0 21:0 22:0 23:0 24:0 25:0 26:0 27:1 28:0 29:0 30:0 31:0 32:0 33:0 34:0 35:0 36:0 37:0 38:0 39:0 40:0 41:0 42:0 43:0 44:0 45:0 46:0 47:0 48:0 
1 0.2338122465976414 1:1091 2:1 3:1344 4:0 5:266 6:0 7:0 8:0 9:0 10:0 11:0 12:0 13:0 14:0 15:0 16:256 17:0 18:0 19:0 20:0 21:0 22:0 23:0 24:0 25:0 26:0 27:0 28:0 29:0 30:0 31:0 32:0 33:0 34:0 35:0 36:32 37:8 38:0 39:0 40:0 41:0 42:0 43:0 44:0 45:0 46:0 47:0 48:0 
1 0.2338082688399679 1:270 2:2 3:4 4:0 5:0 6:0 7:48 8:0 9:0 10:0 11:0 12:0 13:0 14:0 15:0 16:0 17:0 18:0 19:0 20:0 21:0 22:0 23:0 24:0 25:0 26:0 27:0 28:0 29:0 30:0 31:0 32:256 33:0 34:0 35:0 36:0 37:0 38:0 39:0 40:256 41:0 42:0 43:0 44:0 45:0 46:0 47:0 48:0 
1 0.2330341342182734 1:972 2:1 3:256 4:0 5:2 6:0 7:0 8:0 9:0 10:0 11:0 12:0 13:0 14:0 15:0 16:0 17:0 18:128 19:0 20:0 21:0 22:0 23:0 24:0 25:0 26:0 27:0 28:0 29:0 30:512 31:0 32:0 33:0 34:0 35:0 36:0 37:0 38:0 39:0 40:0 41:0 42:0 43:0 44:0 45:0 46:0 47:0 48:0 
1 0.2341422518908877 1:208 2:1 3:4 4:0 5:0 6:2 7:32 8:0 9:0 10:0 11:0 12:0 13:0 14:0 15:0 16:0 17:0 18:0 19:0 20:0 21:0 22:0 23:32 24:0 25:0 26:0 27:0 28:0 29:0 30:0 31:0 32:1 33:0 34:0 35:0 36:0 37:0 38:0 39:0 40:130 41:4 42:0 43:0 44:0 45:0 46:0 47:0 48:0 
1 0.2340214117045814 1:1100 2:1 3:256 4:0 5:34 6:0 7:0 8:0 9:0 10:0 11:0 12:0 13:0 14:0 15:0 16:0 17:64 18:0 19:0 20:0 21:0 22:0 23:0 24:0 25:0 26:0 27:0 28:0 29:256 30:0 31:0 32:0 33:0 34:0 35:0 36:0 37:0 38:0 39:0 40:0 41:0 42:0 43:0 44:0 45:0 46:0 47:0 48:0 
1 0.2340209660887321 1:960 2:1 3:468 4:0 5:26 6:13 7:0 8:0 9:0 10:0 11:0 12:0 13:0 14:0 15:16 16:0 17:0 18:0 19:0 20:0 21:0 22:0 23:16 24:0 25:0 26:0 27:1 28:0 29:0 30:0 31:512 32:4 33:0 34:0 35:0 36:0 37:8 38:0 39:0 40:80 41:0 42:0 43:0 44:32 45:0 46:0 47:0 48:0 
0.8365503783525047 0.7430754533750856 1:853 2:1 3:256 4:0 5:2 6:0 7:0 8:0 9:0 10:0 11:0 12:0 13:0 14:0 15:16 16:0 17:0 18:0 19:0 20:0 21:0 22:0 23:0 24:0 25:0 26:0 27:1 28:0 29:0 30:0 31:0 32:0 33:0 34:0 35:0 36:0 37:0 38:0 39:0 40:0 41:0 42:0 43:0 44:0 45:0 46:0 47:0 48:0 
0.5859660598586518 0.1267104395786654 1:223 2:2 3:4 4:0 5:0 6:0 7:48 8:0 9:0 10:0 11:0 12:0 13:0 14:0 15:0 16:0 17:0 18:0 19:0 20:0 21:0 22:0 23:0 24:0 25:0 26:0 27:0 28:0 29:0 30:0 31:0 32:0 33:4 34:0 35:0 36:0 37:0 38:0 39:0 40:0 41:4 42:0 43:0 44:0 45:0 46:0 47:0 48:0 
1 0 1:619 2:1 3:256 4:0 5:2 6:0 7:0 8:0 9:0 10:0 11:0 12:0 13:0 14:0 15:16 16:0 17:0 18:0 19:0 20:0 21:0 22:0 23:0 24:0 25:0 26:0 27:1 28:0 29:0 30:0 31:0 32:0 33:0 34:0 35:0 36:0 37:0 38:0 39:0 40:0 41:0 42:0 43:0 44:0 45:0 46:0 47:0 48:0 
1 0.1877509583369237 1:427 2:2 3:4 4:0 5:0 6:0 7:48 8:0 9:0 10:0 11:0 12:0 13:0 14:0 15:0 16:0 17:0 18:0 19:0 20:0 21:0 22:0 23:0 24:0 25:0 26:0 27:0 28:0 29:0 30:0 31:0 32:0 33:40 34:0 35:0 36:0 37:0 38:0 39:0 40:0 41:40 42:0 43:0 44:0 45:0 46:0 47:0 48:0 
1 0.2047891266661006 1:336 2:2 3:4 4:0 5:0 6:0 7:48 8:0 9:0 10:0 11:0 12:0 13:0 14:0 15:0 16:0 17:0 18:0 19:0 20:0 21:0 22:0 23:0 24:0 25:0 26:0 27:0 28:0 29:0 30:0 31:0 32:0 33:4 34:0 35:0 36:0 37:0 38:0 39:0 40:0 41:4 42:0 43:0 44:0 45:0 46:0 47:0 48:0 
1 0.2272857445808129 1:649 2:1 3:256 4:0 5:2 6:0 7:0 8:0 9:0 10:0 11:0 12:0 13:0 14:0 15:16 16:0 17:0 18:8 19:0 20:0 21:0 22:0 23:0 24:0 25:0 26:0 27:1 28:0 29:0 30:16 31:0 32:0 33:0 34:0 35:0 36:0 37:0 38:0 39:0 40:0 41:0 42:0 43:0 44:0 45:0 46:0 47:0 48:0 
1 0.1180096653738155 1:141 2:2 3:4 4:0 5:0 6:0 7:48 8:0 9:0 10:0 11:0 12:0 13:0 14:0 15:0 16:0 17:0 18:0 19:0 20:0 21:0 22:0 23:0 24:0 25:0 26:0 27:0 28:0 29:0 30:0 31:0 32:2 33:0 34:0 35:0 36:0 37:0 38:0 39:0 40:2 41:0 42:0 43:0 44:0 45:0 46:0 47:0 48:0 
1 0.2338177737890211 1:159 2:1 3:260 4:0 5:2 6:0 7:48 8:0 9:0 10:0 11:0 12:0 13:0 14:16 15:0 16:0 17:0 18:0 19:16 20:0 21:0 22:0 23:0 24:0 25:0 26:1 27:0 28:0 29:0 30:0 31:2 32:0 33:0 34:0 35:0 36:0 37:384 38:0 39:0 40:0 41:0 42:0 43:0 44:0 45:24 46:0 47:0 48:0 
1 1 1:1052 2:2 3:256 4:0 5:32 6:0 7:0 8:0 9:0 10:0 11:0 12:0 13:0 14:0 15:0 16:0 17:0 18:4 19:0 20:0 21:0 22:0 23:0 24:0 25:0 26:0 27:0 28:0 29:0 30:8 31:0 32:0 33:0 34:0 35:0 36:0 37:0 38:0 39:0 40:0 41:0 42:0 43:0 44:0 45:0 46:0 47:0 48:0 
0.7605637103521298 1 1:810 2:2 3:256 4:0 5:32 6:0 7:0 8:0 9:16 10:0 11:0 12:0 13:0 14:0 15:0 16:0 17:0 18:4 19:0 20:0 21:0 22:0 23:0 24:0 25:0 26:0 27:0 28:0 29:0 30:8 31:0 32:0 33:0 34:0 35:0 36:0 37:0 38:0 39:0 40:0 41:0 42:0 43:0 44:0 45:0 46:0 47:0 48:0 
1 1 1:976 2:2 3:256 4:0 5:32 6:0 7:0 8:0 9:0 10:0 11:0 12:0 13:0 14:0 15:0 16:0 17:0 18:4 19:0 20:0 21:0 22:0 23:0 24:0 25:0 26:0 27:0 28:0 29:0 30:8 31:0 32:0 33:0 34:0 35:0 36:0 37:0 38:0 39:0 40:0 41:0 42:0 43:0 44:0 45:0 46:0 47:0 48:0 
0.5473602486382364 0.1253758589036117 1:1087 2:1 3:256 4:0 5:2 6:0 7:0 8:0 9:0 10:0 11:0 12:0 13:0 14:0 15:0 16:0 17:0 18:1 19:0 20:0 21:0 22:0 23:0 24:0 25:0 26:0 27:0 28:0 29:0 30:2 31:0 32:0 33:0 34:0 35:0 36:0 37:0 38:0 39:0 40:0 41:0 42:0 43:0 44:0 45:0 46:0 47:0 48:0 
1 1 1:845 2:2 3:256 4:0 5:32 6:0 7:0 8:0 9:0 10:0 11:0 12:0 13:0 14:0 15:0 16:0 17:0 18:4 19:0 20:0 21:0 22:0 23:0 24:0 25:0 26:0 27:0 28:0 29:0 30:8 31:0 32:0 33:0 34:0 35:0 36:0 37:0 38:0 39:0 40:0 41:0 42:0 43:0 44:0 45:0 46:0 47:0 48:0 
1 0.2342360586274858 1:1020 2:1 3:256 4:0 5:2 6:0 7:0 8:0 9:0 10:0 11:0 12:0 13:0 14:0 15:0 16:256 17:0 18:0 19:0 20:0 21:0 22:0 23:0 24:0 25:32 26:0 27:1 28:4 29:0 30:528 31:0 32:0 33:0 34:0 35:0 36:0 37:0 38:0 39:0 40:0 41:0 42:0 43:0 44:0 45:0 46:0 47:0 48:0 
0.1700661868337139 0.0202148212471408 1:409 2:2 3:4 4:0 5:0 6:0 7:48 8:0 9:0 10:0 11:0 12:0 13:0 14:0 15:0 16:0 17:0 18:0 19:0 20:0 21:0 22:0 23:0 24:0 25:0 26:0 27:0 28:0 29:0 30:0 31:0 32:0 33:44 34:0 35:0 36:0 37:0 38:0 39:0 40:0 41:44 42:0 43:0 44:0 45:0 46:0 47:0 48:0 
